the -0.029562963 -0.20770384 0.49607518 0.06771443 0.12580512 0.052753225 0.2936549 -0.08751118 -0.37863794 0.1647814 0.32102466 0.19426933 -0.009897082 -0.30792022 -0.11215828 -0.12861232 0.17219739 0.21876568 -0.34462312 -0.09373488 0.0988532 0.14197218 0.1516612 0.42599928 0.30439666 0.274638 0.21647024 0.119106844 0.09319682 -0.58256507
of -0.04323357 -0.22899036 0.515414 0.012080445 0.16184011 0.04616205 0.30463734 -0.14448085 -0.36448234 0.15863414 0.28900188 0.21841647 -0.024468422 -0.34836867 -0.09777881 -0.1326975 0.1615742 0.27965719 -0.31657943 -0.008460227 0.0015886537 0.1313464 0.11695469 0.4411315 0.32205817 0.28626087 0.24849032 0.06297442 0.10805759 -0.53348535
and -0.028606106 -0.2341049 0.44225064 -0.034374136 0.20243657 0.06053427 0.2745083 -0.079257965 -0.37355956 0.16717526 0.35924482 0.25095868 0.007712237 -0.3581576 -0.06879748 -0.11815133 0.23378685 0.24547307 -0.33953112 -0.06668564 0.019431114 0.09733197 0.17008016 0.48686403 0.23537607 0.29945642 0.24423988 0.09567612 0.106143944 -0.55381036
to -0.01591847 -0.23229589 0.46829253 -0.0012265703 0.2407324 0.073007934 0.23627348 -0.13001859 -0.35261235 0.1852715 0.28733364 0.2264716 0.019110665 -0.28429684 -0.053520497 -0.13616207 0.19636683 0.25568557 -0.34609878 -0.07661501 0.024562713 0.06639579 0.11362591 0.45045224 0.28409803 0.31367546 0.25230944 0.13558032 0.09978896 -0.5761468
a -0.0065795677 -0.2662329 0.4704399 -0.055019166 0.25912148 0.052682742 0.2561109 -0.04248402 -0.38621455 0.18636292 0.38560456 0.19360174 -0.029416407 -0.31657955 -0.07332325 -0.09317076 0.24052534 0.27812853 -0.30339724 -0.0103086755 0.03967619 0.037207957 0.092042714 0.4161527 0.2377336 0.35444206 0.2560352 0.13468303 0.114746556 -0.54605585
in 0.032246325 -0.26970553 0.4630507 -0.0058411327 0.22096975 0.07769952 0.30372137 -0.04041704 -0.36839122 0.20898537 0.29257905 0.21175134 -0.03300227 -0.32288978 -0.06434745 -0.10384079 0.22390483 0.24563088 -0.30464965 -0.009860317 -0.0013010473 0.06371805 0.14809383 0.46746892 0.24532922 0.29957938 0.20165032 0.098767035 0.1503155 -0.5755074
bank -0.055682313 -0.19092841 0.48346502 0.0050058514 0.1659166 0.05016708 0.26103294 -0.17382342 -0.3374829 0.15553403 0.32061008 0.18416665 -0.00390071 -0.35655922 -0.113912925 -0.10931287 0.19372547 0.20831662 -0.35912782 -0.0323189 0.045406222 0.13192512 0.112865165 0.38811883 0.33071652 0.35084584 0.2010316 0.095995665 0.10105451 -0.51209015
banking -0.02927871 -0.26888284 0.49438477 -0.06915889 0.3002906 -0.0089206835 0.3208107 0.036659554 -0.40859032 0.12887114 0.3213689 0.16695008 -0.046431374 -0.3091105 -0.047065403 -0.14261034 0.27060074 0.27970406 -0.3786338 0.007955968 0.0023331244 0.060023416 0.091671415 0.4477249 0.2075441 0.33806783 0.25159627 0.16048913 0.12508819 -0.54360265
sbp -0.020073805 -0.24841686 0.41498098 0.05884097 0.24466978 0.06332049 0.3056348 -0.13348284 -0.40509433 0.13165724 0.35807148 0.25795266 -0.04579755 -0.36790717 -0.15360056 -0.15384442 0.1763202 0.21497652 -0.34620827 -0.09411421 0.06470757 0.049901936 0.13028346 0.4347012 0.24241365 0.3096519 0.27928722 0.1511855 0.06253303 -0.57327104
pakistan -0.003306185 -0.186222 0.48761973 0.0102222925 0.17706269 0.08536439 0.30161726 -0.080070876 -0.36718997 0.16964586 0.32309616 0.14838763 -0.062757276 -0.30727357 -0.08371021 -0.14753538 0.1613913 0.19545844 -0.2945671 -0.036574576 0.00189429 0.13214217 0.16573536 0.36996144 0.30948493 0.34349024 0.23361103 0.09968947 0.16789609 -0.56174237
islamic -0.04994776 -0.24655919 0.4237512 -0.06997586 0.2930098 -0.012776346 0.33146176 0.018372446 -0.3703665 0.11167992 0.3766192 0.20175715 -0.023551324 -0.29493004 -0.07485598 -0.11798347 0.25298908 0.22994736 -0.37439027 0.0027617167 -0.01115911 0.08723 0.1612795 0.4938891 0.17925692 0.33234853 0.28022364 0.15818778 0.122765824 -0.5421355
for -0.00554855 -0.27755392 0.41299692 -0.05750426 0.27544308 0.07201679 0.33204722 -0.09267359 -0.42580983 0.20653285 0.3903004 0.24926795 0.010197446 -0.3005011 -0.07495777 -0.09747318 0.24388336 0.2420331 -0.36391878 -0.056992047 0.025788534 0.09077994 0.10413501 0.40756556 0.21998625 0.3031871 0.23265198 0.17651148 0.14785525 -0.6089556
it -0.004367896 -0.20681192 0.4613867 -0.018786976 0.24396639 0.027326867 0.2617667 -0.073254526 -0.3539776 0.123293385 0.3542741 0.21384214 -0.013860658 -0.2524983 -0.097974144 -0.13266431 0.17568871 0.26748258 -0.35523278 -0.04750026 0.0025804322 0.12135055 0.14760277 0.42603186 0.24862155 0.285316 0.25124657 0.1292117 0.111639135 -0.5863731
policy -0.07252945 -0.25148067 0.43002802 0.0060173795 0.23275793 0.039939646 0.30550537 -0.11117345 -0.35173807 0.0995291 0.26342392 0.23169076 -0.028156577 -0.3145417 -0.062014736 -0.06838691 0.1923827 0.23191555 -0.35435402 -0.0035657538 0.00040469063 0.09169945 0.10175747 0.45419264 0.23591736 0.20441987 0.2121577 0.14319545 0.10941718 -0.577069
monetary -0.036578592 -0.26556984 0.4579046 0.04595571 0.17339823 0.06870282 0.2635494 -0.07407589 -0.36485496 0.12602614 0.30552867 0.24426123 0.012391493 -0.33921686 -0.029318387 -0.11448605 0.17319594 0.23711364 -0.34084755 -0.010983485 0.035765532 0.027208842 0.07386226 0.47265658 0.27790925 0.18200666 0.22552556 0.10868975 0.10248397 -0.5599087
system -0.0053866184 -0.21042284 0.4691711 -0.06702732 0.23833588 0.007339339 0.22679247 -0.07977825 -0.36057007 0.12963252 0.34276372 0.16750917 -0.006903361 -0.27568874 -0.088653386 -0.114921495 0.2437269 0.28961912 -0.34014612 0.026078101 -0.018227886 0.08801322 0.118348815 0.4490986 0.23823044 0.34125516 0.22249663 0.1532005 0.14287868 -0.57577556
on -0.052612804 -0.31596696 0.4386003 -0.043617286 0.25314182 0.0036436666 0.32627168 -0.06225836 -0.42694584 0.13265501 0.41070172 0.23614962 0.0087252455 -0.30482334 -0.088647164 -0.123219214 0.26679587 0.2885322 -0.36683965 -0.045096703 -0.02823727 0.06610052 0.1298882 0.3994189 0.20811316 0.32055682 0.27987447 0.16856839 0.07830841 -0.6311327
with -0.029495373 -0.27093655 0.43911082 -0.05325673 0.22821456 0.018949484 0.24787767 -0.08886354 -0.39479563 0.1622823 0.32120588 0.22960915 0.018084878 -0.27799186 -0.11288117 -0.14019425 0.22379202 0.23032707 -0.34639245 -0.021675196 0.030841388 0.04874223 0.113844134 0.42554864 0.2540649 0.36130798 0.25137618 0.15494245 0.14307463 -0.5940131
by 0.014521258 -0.28329647 0.4053275 -0.021799926 0.2202479 0.04978038 0.3039496 -0.06154856 -0.38432875 0.15791175 0.3522232 0.20353436 0.014007239 -0.2736983 -0.14009549 -0.07769137 0.23802662 0.22240981 -0.36729437 -0.09387179 0.055202886 0.08902102 0.14713238 0.3985591 0.2791524 0.3078569 0.23944242 0.14107026 0.07353701 -0.6495026
state -0.009859473 -0.1861821 0.48219967 0.045290295 0.17264736 0.08811687 0.22655234 -0.0895431 -0.34432623 0.18317246 0.35536918 0.1650267 0.005412287 -0.33633667 -0.10888138 -0.14642029 0.15473174 0.25841686 -0.3361161 -0.06293193 0.06821803 0.14662945 0.11027654 0.36148363 0.3103397 0.32077757 0.2067524 0.051699206 0.1409666 -0.56241894
is 0.009435227 -0.25768566 0.40356278 0.0035284017 0.21067044 0.05378604 0.29998899 -0.0847246 -0.36264715 0.14139846 0.3467308 0.22166456 -0.008133139 -0.2539692 -0.116890244 -0.09701344 0.21683654 0.24608126 -0.30676556 -0.091662906 0.024376012 0.07389877 0.15065874 0.4128606 0.24973187 0.29865518 0.21844336 0.10019836 0.095678695 -0.5559581
board 0.011056404 -0.21122839 0.4116969 0.022467865 0.18538666 0.06984818 0.26963606 -0.13208403 -0.41265175 0.118563384 0.33931282 0.22373658 0.020605775 -0.3550563 -0.09153995 -0.048618473 0.1525086 0.19835648 -0.34962812 -0.070097566 0.042248126 0.037848342 0.0545997 0.46625116 0.2254242 0.23611043 0.22770378 0.09729214 0.036833864 -0.6483983
committee -0.013513402 -0.2664371 0.44115475 0.008845382 0.19269596 0.09092353 0.27557585 -0.10074406 -0.4075658 0.111108676 0.2873879 0.25614902 -0.020761274 -0.3036018 -0.061441828 -0.11419825 0.2090875 0.25052717 -0.3583872 -0.016326325 0.061039187 0.047983 0.08516322 0.4584421 0.2587492 0.22733805 0.25668615 0.108343296 0.058254335 -0.61709183
function -0.029592335 -0.2249552 0.4084457 -0.014502273 0.19605704 0.05286176 0.30008483 -0.11558058 -0.3556531 0.1643755 0.3554558 0.20021902 0.026581097 -0.26078838 -0.11263549 -0.10065222 0.20406869 0.20962733 -0.35580984 -0.0686873 0.028697493 0.07817229 0.14865276 0.39269316 0.24825528 0.28499764 0.2367039 0.10662817 0.08486 -0.5989205
financial -0.022987183 -0.21124679 0.43638897 -0.07638352 0.192837 0.06705855 0.27081198 -0.039032977 -0.40049982 0.19679673 0.3174938 0.21706705 -0.018201238 -0.3365725 -0.11514577 -0.101355575 0.18350656 0.23158178 -0.37224838 -0.006591452 0.046539348 0.07281927 0.12765594 0.4449473 0.2808292 0.2748419 0.2111279 0.11581763 0.13614683 -0.5811429
rate -0.0690325 -0.3152591 0.47683683 -0.048155345 0.27996913 0.071587846 0.24999961 -0.048995018 -0.39442927 0.16461106 0.4785533 0.2783954 -0.037216928 -0.24693109 -0.07576177 -0.05205625 0.21627143 0.34287882 -0.384534 -0.07259005 -0.0062047695 0.018364076 0.15918803 0.40279618 0.23143259 0.32706168 0.30234993 0.15945315 0.10584152 -0.6612002
department -0.057285883 -0.28649706 0.38375667 -0.030286716 0.286382 -0.013859853 0.35299093 0.0073171915 -0.34833592 0.10800534 0.3532584 0.20413034 -0.059078965 -0.26210678 -0.11406238 -0.10631012 0.21309334 0.21079846 -0.33828884 -0.072704375 -0.050241567 0.13588391 0.14207225 0.4886855 0.2453267 0.33144596 0.3037674 0.1224404 0.07199199 -0.5311195
exchange -0.0037086688 -0.2828671 0.4856871 -0.013610913 0.27518326 0.061955296 0.2288196 -0.06293655 -0.37640223 0.13418606 0.35427976 0.28622508 0.03867103 -0.30657163 -0.0603501 -0.09791261 0.19664638 0.20375575 -0.3141641 -0.080270216 0.058851503 0.031455148 0.16524722 0.4617422 0.23535055 0.31455457 0.20183189 0.15624823 0.13949914 -0.60310364
s -0.03500125 -0.24578774 0.45443293 0.0037256524 0.22399816 0.032875653 0.29514822 -0.072862804 -0.40822464 0.14637908 0.3652923 0.23130852 0.0036204169 -0.34353185 -0.08086924 -0.12335115 0.22272977 0.2546434 -0.34225178 -0.09164079 -0.01332945 0.066099174 0.1817226 0.427759 0.21439981 0.31403366 0.22669975 0.15767774 0.07172518 -0.5764056
act -0.06384834 -0.22824867 0.4958106 0.06421129 0.1551135 0.036002766 0.2541612 -0.13165997 -0.40833345 0.14462659 0.3281279 0.17005418 0.017348906 -0.31788594 -0.08719603 -0.11523813 0.17140819 0.18896407 -0.35163775 -0.044447716 0.0019121079 0.10772509 0.1490762 0.3842533 0.3404915 0.35487857 0.23763119 0.1332487 0.15950745 -0.59320396
governor -0.05162588 -0.2901592 0.37375906 0.0344258 0.22172359 0.04334086 0.2971612 -0.06470462 -0.4059245 0.14229858 0.3398141 0.236987 -0.0056939013 -0.30625486 -0.118605174 -0.035211597 0.23372382 0.19608095 -0.3101298 -0.09714936 0.057234313 0.10014873 0.0664298 0.43464676 0.29193667 0.26763242 0.22473538 0.20174567 0.060978986 -0.65025055
been 0.027705945 -0.24586222 0.46459118 0.0032267799 0.20644072 0.0704502 0.3121684 -0.050779432 -0.38108248 0.20449434 0.37934214 0.2690443 -0.038567074 -0.31876564 -0.08604478 -0.10349618 0.20541714 0.30389613 -0.3308684 -0.02741252 0.013880718 0.10860002 0.13671452 0.48179534 0.26737583 0.28777164 0.22243828 0.13085577 0.14601728 -0.59467924
ha -0.021013912 -0.22418712 0.47715804 -0.033023253 0.22512145 0.021471608 0.28594008 -0.120841935 -0.3717777 0.1548187 0.3630782 0.26196173 -0.032897547 -0.35054776 -0.083260484 -0.15824942 0.21508102 0.24600045 -0.3238454 -0.05581543 0.043172285 0.06566853 0.12530567 0.46782458 0.2680888 0.2889056 0.20513144 0.13202816 0.14571472 -0.56449014
management -0.058244664 -0.21207741 0.43786088 0.016886154 0.26178217 0.03011843 0.2327265 -0.04848102 -0.32245064 0.15859829 0.3626017 0.23036122 0.038107485 -0.32898533 -0.11574974 -0.120426364 0.19165081 0.25507423 -0.33287552 -0.07741604 0.07169583 0.04409973 0.17431074 0.40137765 0.253795 0.29975134 0.2216274 0.123241775 0.12227067 -0.60763395
objective -0.032166786 -0.26946664 0.47792894 -0.022579318 0.20199266 0.06706397 0.28812084 -0.10939164 -0.34532043 0.17023358 0.32271832 0.24699536 0.03776372 -0.2805023 -0.07163004 -0.09649187 0.20073913 0.23727782 -0.3834641 -0.05489596 0.00266184 0.0772425 0.106795155 0.48497984 0.23880595 0.25432092 0.22613144 0.1172153 0.07668542 -0.5882222
wa -0.030746492 -0.2580066 0.4320037 -0.021285476 0.26734188 0.036053866 0.27067432 -0.060929045 -0.34453973 0.18633266 0.3196489 0.20928928 -0.022048187 -0.28254712 -0.13785152 -0.08691437 0.17447388 0.23456967 -0.3425291 -0.047234185 0.012490391 0.139915 0.12121182 0.47330976 0.2665889 0.3766386 0.27015644 0.07851393 0.11367722 -0.5624762
country 0.004154844 -0.19171973 0.47669324 0.02818376 0.1801418 0.068126515 0.25040224 -0.058251474 -0.33562788 0.17981124 0.3705872 0.21727113 -0.01018517 -0.28349596 -0.11311326 -0.11033756 0.23857154 0.23244604 -0.3292773 -0.084330246 0.052783333 0.12265392 0.14977364 0.43038458 0.2564598 0.2866906 0.2246177 0.13932429 0.098670915 -0.56794566
development -0.01876491 -0.2593563 0.43394348 -0.042269796 0.2733514 0.016066147 0.31215432 -0.08186119 -0.40845212 0.108489595 0.33865288 0.20817557 -0.008084295 -0.34997374 -0.13528979 -0.14591603 0.18599607 0.265789 -0.34708503 -0.06301404 -0.00526372 0.071851484 0.15410168 0.45043528 0.26347834 0.31309715 0.25268164 0.13006002 0.08292701 -0.61724454
executive -0.06003728 -0.24151616 0.40553415 0.044094298 0.21490249 0.055676837 0.32886243 -0.087254554 -0.39516398 0.1617115 0.32533592 0.21273026 0.008495366 -0.299101 -0.12798837 -0.08268569 0.19173074 0.23775154 -0.34790355 -0.07351996 0.057075687 0.088555574 0.0857251 0.41826153 0.23658435 0.29112116 0.26347598 0.17274754 0.03634943 -0.5975914
director -0.044590876 -0.22371764 0.4351299 0.026728634 0.24907325 0.09688828 0.28308207 -0.051435415 -0.42035997 0.12472656 0.3454322 0.30095124 -0.039991643 -0.33980426 -0.08667299 -0.10009799 0.18673284 0.21840063 -0.32283562 -0.03653249 0.07327974 0.060660265 0.049997266 0.48307982 0.2898225 0.25465354 0.22105089 0.15180844 0.047853947 -0.6538318
reserve -0.032542802 -0.28557235 0.48709086 -0.042054668 0.2671833 0.07356493 0.27246982 -0.03102803 -0.3431621 0.1427422 0.351621 0.22505897 -0.026668744 -0.3092933 -0.10463732 -0.13693443 0.23084764 0.2804154 -0.3361726 -0.063634306 -0.008047505 0.06417125 0.14456274 0.4616984 0.25107124 0.3450617 0.19306046 0.1829925 0.11180436 -0.56727815
under -0.042292092 -0.23490453 0.45981836 0.021622783 0.19899954 0.020319073 0.26136726 -0.14066908 -0.36973575 0.16325857 0.33640832 0.24630797 -0.02053143 -0.32813105 -0.13727239 -0.15177464 0.22595465 0.21326564 -0.36613226 -0.038633905 0.04748269 0.058477856 0.13357243 0.39784986 0.2852233 0.29630068 0.21694085 0.11747737 0.14795764 -0.5657902
finance -0.07291634 -0.2835419 0.4258871 -0.022526309 0.22875826 0.015926491 0.3338806 -0.035435505 -0.4003425 0.12012704 0.35440838 0.24371743 -0.005019504 -0.29930905 -0.09375853 -0.09994823 0.2086725 0.17738965 -0.35228607 -0.049265604 -0.030199483 0.1147555 0.110930994 0.46611324 0.19243737 0.27495852 0.26853597 0.11392649 0.083212174 -0.51444155
an 0.0021415143 -0.25257388 0.46859238 -0.065015614 0.25026932 0.06770652 0.33065715 -0.047703564 -0.34748122 0.20033439 0.30951995 0.2669267 -0.04191381 -0.30998397 -0.09860236 -0.13027148 0.17705113 0.22756292 -0.37624156 -0.051708438 -0.012834463 0.100083075 0.09294188 0.416654 0.29407063 0.32431293 0.2630638 0.14206296 0.12317488 -0.6073086
foreign 0.0022206486 -0.24079739 0.4658943 0.009734568 0.2568872 0.08440034 0.20601025 -0.090984 -0.35171115 0.18697193 0.37653553 0.2666136 0.033418674 -0.30646834 -0.05806006 -0.121702515 0.17260948 0.27935633 -0.31670892 -0.067783765 0.004792012 0.050369747 0.15995939 0.44058472 0.22634105 0.26437443 0.18441834 0.13861984 0.1436966 -0.57982194
y -0.030032333 -0.32436395 0.39584824 -0.0065445867 0.33304706 0.022515237 0.34136596 -0.0814655 -0.44474107 0.14162757 0.5325554 0.32427022 0.008795115 -0.25908792 -0.06719679 -0.04471 0.34836632 0.3409129 -0.39293516 -0.06514544 -0.06749872 0.025615042 0.07864914 0.43432665 0.3317394 0.4157882 0.28688782 0.22359703 0.07777643 -0.68170065
which -0.016195377 -0.26264685 0.455271 0.013887344 0.2345284 0.064854324 0.31034532 -0.042087436 -0.35568437 0.11658849 0.35464764 0.24616912 -0.010124959 -0.28448826 -0.117009036 -0.11226001 0.2094543 0.22177735 -0.35248706 -0.01798005 0.04869391 0.11763485 0.13464876 0.3755074 0.28786093 0.28198624 0.24965836 0.1341248 0.1380064 -0.5877237
government 0.018396547 -0.2905329 0.39774838 -0.059267566 0.20234738 0.08462064 0.3276967 -0.10367248 -0.36636192 0.14691101 0.3767122 0.25775886 -0.0023262345 -0.31291032 -0.123155065 -0.07508473 0.21693818 0.22727452 -0.31489408 -0.06740398 -0.014756971 0.08292278 0.12180101 0.40166056 0.2353057 0.25874826 0.27161336 0.16550186 0.1038001 -0.5587433
credit 0.0032522937 -0.22634324 0.4519294 -0.0028006625 0.23099378 0.08703959 0.24332266 -0.090010114 -0.3466632 0.16972294 0.3419582 0.24338008 0.016000373 -0.32756668 -0.09438844 -0.12645264 0.23081802 0.25905746 -0.33415756 -0.016679205 -0.0030965153 0.056603894 0.14580414 0.4340981 0.2634524 0.2972206 0.20737034 0.10050112 0.10988458 -0.5573707
also -0.032475427 -0.2915488 0.46700105 -0.019724395 0.23755959 0.017510263 0.335191 -0.08232535 -0.37917647 0.16452585 0.32896876 0.24918193 -0.007135216 -0.34294888 -0.07819328 -0.11253749 0.23896319 0.26127806 -0.3568677 -0.087942086 0.039695244 0.088903636 0.16089852 0.45456326 0.260236 0.29124904 0.23391743 0.16932888 0.095634885 -0.5432309
institution -0.045925073 -0.24112035 0.44012913 -0.015305933 0.21767388 0.0262598 0.27924898 -0.063913025 -0.41897672 0.1956068 0.3332929 0.1756038 -0.027092533 -0.27656025 -0.14231926 -0.1374158 0.16909304 0.2835258 -0.34648806 -0.01515994 -0.018642204 0.10735411 0.10725177 0.44822615 0.2355162 0.31203228 0.23499528 0.16456737 0.1062492 -0.64673054
central -0.032365534 -0.24997985 0.44020185 0.031418063 0.1825467 0.07909699 0.30303115 -0.12104837 -0.38648668 0.1943415 0.35819826 0.19030738 -0.03566181 -0.2672013 -0.07697294 -0.08559316 0.15235958 0.19846264 -0.31741375 -0.08676289 0.009068907 0.079941876 0.16205367 0.41478008 0.250477 0.31636643 0.25927725 0.101606615 0.14730589 -0.5164453
from -0.0066624884 -0.27591732 0.43886504 -0.023975458 0.2807524 0.030484827 0.29128346 -0.04291509 -0.3765743 0.19465196 0.33041155 0.23536226 0.0058544455 -0.32614 -0.07002173 -0.07511891 0.21538071 0.26295352 -0.3799791 -0.06840959 -0.024221437 0.08614624 0.12364529 0.46529827 0.25133577 0.3507322 0.21826467 0.107489936 0.15743926 -0.580742
be -0.03377183 -0.23957165 0.39821184 -0.07219897 0.20894368 0.097379126 0.33476868 -0.044173334 -0.36715057 0.20562111 0.36536008 0.2008922 0.010188988 -0.31277886 -0.08928896 -0.07652277 0.17816083 0.29020968 -0.35121214 -0.04771979 -0.0056100297 0.047457486 0.083701625 0.47312492 0.22885819 0.33546707 0.2038866 0.13510174 0.091728635 -0.678123
1956 0.010871369 -0.18366666 0.46568564 0.04854446 0.18080838 0.11667129 0.295613 -0.14123918 -0.3698012 0.154041 0.31527573 0.16712525 -0.020165175 -0.34072697 -0.09247856 -0.087977126 0.18227819 0.19470336 -0.3736329 -0.09204572 0.02576806 0.074223086 0.08859936 0.4086537 0.31670693 0.3193111 0.18116023 0.07373331 0.15825494 -0.5316769
all -0.026634274 -0.2865261 0.42010382 0.0014342124 0.25784624 0.06033305 0.26228505 -0.13599084 -0.3896165 0.15289794 0.37336448 0.27081186 -7.771186e-05 -0.26500478 -0.10904569 -0.090964094 0.16058637 0.26583463 -0.31734964 -0.05521059 0.053693686 0.11217011 0.1355867 0.41660884 0.24857834 0.26371792 0.269311 0.10082742 0.1366616 -0.603766
other -0.024524903 -0.29012606 0.39156425 -0.062269885 0.20308915 0.04985775 0.253061 -0.07736187 -0.39326504 0.12728919 0.37722042 0.24678518 0.022847252 -0.2548712 -0.10121217 -0.06793836 0.18738505 0.22352424 -0.38585508 -0.021299006 0.019026808 0.100793585 0.13746904 0.40292594 0.26959532 0.26877147 0.27462637 0.15414882 0.083966844 -0.6043569
this -0.028348628 -0.27999887 0.48095718 -0.03852319 0.27921623 0.014687887 0.30329922 -0.0716027 -0.35498485 0.12588798 0.37985146 0.21664926 -0.040729787 -0.32179213 -0.10947073 -0.12667635 0.19580843 0.21433622 -0.3524867 -0.06360742 0.0043815672 0.09865303 0.106026374 0.42065087 0.27215016 0.3398746 0.18917789 0.16199529 0.1321021 -0.6040186
bsc 0.024216864 -0.2808176 0.43363142 0.043200098 0.23149993 0.02968358 0.26909062 -0.11587499 -0.3773581 0.13343559 0.37832487 0.29584903 0.0015894924 -0.32839558 -0.07409772 -0.13174221 0.19163093 0.22452831 -0.32104358 -0.053185984 0.016316976 0.034677483 0.07370308 0.4211403 0.28295067 0.27629498 0.2435562 0.1383299 0.11245554 -0.6149725
market -0.0048962263 -0.28053838 0.46441612 0.008151246 0.2696456 0.07688392 0.3051636 -0.040524006 -0.34592333 0.19670635 0.33600575 0.28270468 0.022086663 -0.30132663 -0.051759813 -0.085823804 0.24532278 0.27084485 -0.3075915 -0.05015199 0.049101114 0.08432041 0.1610384 0.43088943 0.26824707 0.33231637 0.21141107 0.1251534 0.13362205 -0.61674935
at 0.038089573 -0.28631437 0.41039923 -0.01057304 0.2620431 0.02851041 0.3070466 -0.020268159 -0.4008946 0.1429915 0.3186301 0.21443456 -0.028347112 -0.2594765 -0.061616942 -0.11673163 0.21803819 0.28978243 -0.30282134 -0.02339289 0.030056637 0.05219116 0.10893292 0.41099358 0.282284 0.3055002 0.20324613 0.15401858 0.15121375 -0.58331525
service 0.01699462 -0.25457647 0.41370356 -0.029053021 0.25265333 0.032280866 0.3019867 -0.06787335 -0.35272825 0.12648445 0.3562196 0.22283961 0.012671332 -0.2664456 -0.12367175 -0.09722251 0.18583286 0.25805277 -0.32392207 -0.064052045 -0.009062244 0.056230374 0.12385972 0.42962584 0.27333584 0.34463525 0.22753073 0.1401852 0.14528371 -0.6066929
interest 0.0039146473 -0.1967166 0.47053456 -0.01783178 0.22299033 0.10056308 0.29484522 0.003913222 -0.36413193 0.17618819 0.35373288 0.19577418 0.008706288 -0.25693494 -0.015284537 -0.106835596 0.20410185 0.27137437 -0.39228097 -0.058033638 -0.029616296 0.05718916 0.106286 0.44767207 0.27372974 0.29103288 0.23094991 0.14931694 0.096214026 -0.5882047
support 0.033010483 -0.282173 0.4320155 0.0039691105 0.29058462 0.06160878 0.30656046 -0.105474606 -0.3524784 0.15229793 0.3847511 0.2860167 -0.0058941343 -0.27096444 -0.14297268 -0.07488339 0.25059605 0.23635752 -0.33548337 -0.09577878 0.019604085 0.087367006 0.17110126 0.43864283 0.26360452 0.30448464 0.2608919 0.11800321 0.085207656 -0.62804127
member -0.032381296 -0.21997839 0.38152 -0.033285517 0.18326771 0.08100757 0.27785608 -0.111018084 -0.36591613 0.20786679 0.33109286 0.19598459 0.0046263197 -0.3218461 -0.14095156 -0.05644962 0.17416652 0.21942237 -0.34372795 -0.07693683 0.026901511 0.119973764 0.12582076 0.46012798 0.24750169 0.28505906 0.21170773 0.096642695 0.09953569 -0.6034134
shall -0.051246177 -0.27456415 0.36070585 -0.031412486 0.23743187 0.09604308 0.31244835 -0.072226554 -0.34186417 0.1490892 0.31386915 0.1996514 -0.014955264 -0.31741187 -0.10214563 -0.046194796 0.16511218 0.2257661 -0.36499187 -0.06309141 0.018427128 0.081398755 0.10644017 0.42028743 0.24162985 0.27624518 0.24672808 0.15836786 0.06875864 -0.63312644
oct -0.06613543 -0.33189574 0.4455491 -0.035619706 0.3758911 0.028196245 0.30321458 -0.09358527 -0.43913814 0.10997828 0.4754695 0.29990348 -0.059370518 -0.27284077 -0.13799557 -0.12686127 0.2435131 0.3366914 -0.39325306 -0.018687839 0.0004243898 -0.010774327 0.11516793 0.45910406 0.25645128 0.3688741 0.29363725 0.20476618 0.12615778 -0.66549575
24 -0.027274998 -0.34273565 0.4588148 -0.021786774 0.35756412 0.023937374 0.28259316 -0.03810787 -0.45999268 0.14191586 0.4914399 0.31351572 -0.06694124 -0.2674977 -0.11143081 -0.10576533 0.29615456 0.3103863 -0.45442668 -0.077790186 -0.013287263 -0.045896646 0.13976228 0.42725942 0.23719801 0.35983515 0.30839932 0.24334747 0.09927071 -0.66407096
operation -0.006035395 -0.27135533 0.39112458 0.0062589655 0.25106433 0.0062463274 0.2700985 -0.086324826 -0.35687536 0.17982106 0.37446433 0.221155 -0.007782372 -0.30477783 -0.12590563 -0.06319526 0.22132826 0.23319505 -0.37604752 -0.09516653 0.021728616 0.1212754 0.17231806 0.40284497 0.1980215 0.3335812 0.22492045 0.11845106 0.12911022 -0.6191089
3 -0.015468301 -0.31706673 0.4130876 -0.022597263 0.34864002 0.054952174 0.3221181 -0.047764976 -0.44350928 0.119128264 0.46072507 0.29563987 -0.026982319 -0.31759912 -0.11897391 -0.025680644 0.29927576 0.29399136 -0.4220128 -0.023747616 -0.0606446 0.060071073 0.1385235 0.469904 0.2981298 0.3466469 0.30224496 0.17285481 0.035847165 -0.6610119
stability -0.010663815 -0.20452468 0.45007586 0.017466541 0.17941292 0.07632896 0.22554088 -0.08042717 -0.33824077 0.16776074 0.33976135 0.23519287 0.043799367 -0.2783564 -0.091875024 -0.11597922 0.21838912 0.2274071 -0.33324865 -0.021210017 -0.00764705 0.046931874 0.11491305 0.42216748 0.23432724 0.29041088 0.19247697 0.1327816 0.12225289 -0.5224589
economic 0.014761077 -0.26867 0.4503915 -0.058182366 0.24358404 0.0051576225 0.27278256 -0.13400452 -0.38120282 0.13504562 0.31767875 0.24121228 0.009043289 -0.31241176 -0.120171 -0.13553645 0.19898257 0.2302608 -0.38537225 -0.058341768 0.04361277 0.11501431 0.09252922 0.4443776 0.22486171 0.24493808 0.23163432 0.12703292 0.07013681 -0.613021
external -0.039109524 -0.22306949 0.39210615 0.009447169 0.23246755 0.05552902 0.33420083 -0.06397794 -0.40960547 0.18199801 0.37941524 0.2545618 -0.0027658287 -0.32209116 -0.095333055 -0.11042628 0.21881545 0.27533713 -0.34112388 -0.019994058 -0.024451591 0.05339894 0.15260841 0.4429821 0.21948422 0.31120646 0.23615465 0.13843162 0.082581475 -0.59834456
international 0.024030369 -0.2803021 0.43494797 -0.03676711 0.23009492 0.041673776 0.2519939 -0.022168681 -0.40277293 0.17041552 0.35108152 0.25325465 0.0019550696 -0.24583457 -0.080757864 -0.13284145 0.21177283 0.27134112 -0.3573093 -0.07970971 -0.01782312 0.057589028 0.15384845 0.464936 0.27639085 0.35555956 0.19484483 0.14997624 0.14033802 -0.57493144
13 -0.018937461 -0.270598 0.38577598 0.022014676 0.3432633 0.07445851 0.2591577 -0.04544411 -0.39080796 0.1272106 0.42700303 0.315519 -0.03839003 -0.33289865 -0.06247057 -0.037264563 0.32865384 0.26539397 -0.4511368 -0.025639942 -0.00016902293 0.018535297 0.09222147 0.40395138 0.25634864 0.3175485 0.25370944 0.16885762 0.064477615 -0.66683084
level 0.032224767 -0.29337773 0.42247245 0.0026284652 0.29396513 0.09034431 0.29262668 -0.097003564 -0.39124408 0.16323122 0.33958036 0.25717363 -0.0057982393 -0.2782249 -0.068933696 -0.095223665 0.2129464 0.26477227 -0.38734096 -0.04089126 -0.020195175 0.07517948 0.14242713 0.4377015 0.24499568 0.35014138 0.21698198 0.14312592 0.12465482 -0.6033668
were -0.03727386 -0.24771354 0.4935011 -0.079293005 0.25201347 0.080685586 0.3210617 -0.032033328 -0.36261684 0.1694892 0.35812378 0.21841122 -0.05603498 -0.28058085 -0.07569957 -0.1298827 0.21709496 0.26442528 -0.39081776 0.006405348 -0.015520228 0.05211061 0.15028663 0.41857052 0.22934462 0.317592 0.21590264 0.14924648 0.11878892 -0.6309393
deputy -0.05858676 -0.2672665 0.3754313 0.0025668633 0.28075874 0.08494306 0.33870748 -0.103978254 -0.32655448 0.1412971 0.36659473 0.248308 0.0034940296 -0.32263368 -0.14150368 -0.027156334 0.21012007 0.25270984 -0.2944028 -0.060062274 0.07908779 0.0777549 0.053989578 0.3904133 0.23763852 0.24795301 0.27330205 0.18602793 0.052033164 -0.5694515
shariah 0.025556104 -0.23354761 0.45079547 -0.07122431 0.2442171 -0.0041170623 0.28137943 -0.056874324 -0.3844162 0.16088533 0.36547565 0.21178046 -0.0015065207 -0.26289842 -0.11757632 -0.077882946 0.24377914 0.2959127 -0.3319742 -0.04893355 -0.011348921 0.079148576 0.11105877 0.46734723 0.246019 0.31377706 0.2457987 0.105347484 0.12917602 -0.5400768
free -0.023088261 -0.24569894 0.42931867 -0.07731889 0.2831645 0.045801267 0.3194044 -0.02670349 -0.38910672 0.17700204 0.33624414 0.21551485 -0.016595231 -0.25662878 -0.0821475 -0.10123583 0.19111276 0.2948307 -0.4082197 -0.0003672041 0.005964344 0.040485937 0.10578135 0.40720478 0.23280117 0.34968638 0.28735924 0.15971786 0.111851975 -0.5533377
dpc -0.023887852 -0.25173044 0.4092507 -0.03964425 0.1937602 0.019255307 0.32442746 -0.062502176 -0.3872517 0.14129445 0.35926497 0.23918505 -0.02132969 -0.29442924 -0.12792404 -0.09611327 0.18106014 0.28421357 -0.36751094 -0.078392036 -0.02774323 0.0700449 0.089351214 0.44405496 0.23057197 0.26788145 0.23819827 0.0896877 0.1070289 -0.6165848
have 0.01955507 -0.22882235 0.42691922 -0.00583272 0.25452623 0.02546033 0.32990116 -0.11946483 -0.34058926 0.16993786 0.3270959 0.22571822 0.021262964 -0.3197195 -0.05118058 -0.12243723 0.24135236 0.24769993 -0.31639412 -0.06657483 0.046671458 0.10819598 0.13456261 0.43703732 0.26863402 0.32210743 0.26317996 0.17011614 0.12874286 -0.5583249
transformation 0.030664125 -0.24884589 0.42349187 -0.029523253 0.2415287 0.03202887 0.2519141 -0.09142819 -0.38127303 0.18470901 0.32331327 0.17428283 -0.0056617386 -0.2899912 -0.083724424 -0.10224127 0.22500758 0.27935252 -0.34348503 -0.03223718 0.036569525 0.08940127 0.10739601 0.45680237 0.25478446 0.31625095 0.22023371 0.15165663 0.12766743 -0.53968394
off -0.019040242 -0.33875757 0.4403837 -0.029406562 0.3071289 -0.013783753 0.34301683 -0.104724154 -0.3845824 0.08742978 0.47446722 0.30189955 -0.015357138 -0.29307842 -0.10699875 -0.056475118 0.22386186 0.3200301 -0.374074 -0.049494516 -0.053291135 0.106293865 0.15016052 0.4247536 0.23025872 0.36077583 0.29888496 0.18491495 0.047708828 -0.66521263
role -0.028799148 -0.25426424 0.40130407 -0.05650933 0.23419239 0.04520285 0.25147372 -0.09906281 -0.36878794 0.19110304 0.3513944 0.22771052 -0.03916723 -0.32774717 -0.09717432 -0.08111543 0.22557625 0.24972561 -0.34200203 -0.09098654 0.014520476 0.070430204 0.15072648 0.41946015 0.2365045 0.27355418 0.22933893 0.106744066 0.10056545 -0.6012326
m -0.037092794 -0.3137747 0.40261042 -0.015774893 0.32991818 0.02617656 0.2785115 -0.08421791 -0.4654573 0.14036217 0.46861434 0.28662318 -0.007203784 -0.30844608 -0.05102975 -0.056376997 0.33311576 0.25641716 -0.45486662 -0.08745445 -0.05014465 0.009928814 0.09863168 0.43522614 0.27481976 0.32548308 0.22640862 0.19537778 0.085957 -0.64515394
mr -0.007645957 -0.24680807 0.43776166 0.01606018 0.24584733 0.068205886 0.3419214 -0.038750846 -0.43052167 0.15837339 0.34157825 0.2557376 0.016376456 -0.34978026 -0.11475086 -0.13290524 0.18644111 0.29821467 -0.3974686 -0.050365377 0.0070505263 0.06879366 0.078024484 0.5075503 0.2939343 0.32219663 0.287417 0.16803975 0.04639415 -0.63023555
best -0.034362163 -0.22343725 0.42541265 -0.029987907 0.21645768 0.031411316 0.28041777 -0.07982763 -0.35096404 0.11687023 0.36107647 0.2111805 0.02631196 -0.28587356 -0.111503266 -0.14357994 0.19336125 0.26671547 -0.3295759 -0.000105966115 0.0109794345 0.084179275 0.13530856 0.44993106 0.21838571 0.33251858 0.1790664 0.14397858 0.10365209 -0.54148436
provide 0.011812609 -0.24723074 0.40073738 -0.028286168 0.23350604 0.033312943 0.30783105 -0.10973716 -0.33468947 0.15725036 0.35594484 0.24090105 -0.0056730947 -0.28219697 -0.120278545 -0.08540933 0.19740371 0.23109335 -0.37697697 -0.09501948 0.008902487 0.06454936 0.12657022 0.39799154 0.21739274 0.29956228 0.23916763 0.11883447 0.076002404 -0.57723963
established -0.0027068327 -0.27386212 0.41128427 -0.012249907 0.23202628 0.004586626 0.33311212 -0.047207206 -0.3851927 0.1716081 0.35937774 0.27311343 -0.041723575 -0.26939964 -0.10117147 -0.1415463 0.17912462 0.2899565 -0.3336083 -0.059461 0.042350102 0.057865877 0.1275667 0.39578736 0.23215213 0.27317676 0.25311762 0.13581134 0.13314399 -0.5577332
framework -0.008646106 -0.23293303 0.4089453 -0.021659361 0.2625604 0.034800395 0.30956283 -0.09199336 -0.34666964 0.16685545 0.3569102 0.17637959 -0.019772239 -0.27323812 -0.10460445 -0.13302413 0.23633547 0.2325123 -0.36476165 -0.0019764185 -0.025773378 0.10274901 0.12746823 0.44293174 0.23345745 0.26155427 0.19511743 0.13104387 0.08904546 -0.5722493
power 0.012607869 -0.2519035 0.353246 -0.020320905 0.16862331 0.014040634 0.24960303 -0.050603144 -0.29455268 0.10261984 0.25295717 0.20105566 -0.042289834 -0.28566515 -0.094738014 -0.07367823 0.148515 0.22004725 -0.29968408 -0.024207126 0.013774114 0.032784317 0.124725655 0.37058285 0.2395601 0.24108784 0.23577312 0.10982033 0.07372767 -0.49704397
amended -0.03468599 -0.2685636 0.4551165 -0.020064577 0.20884907 0.06310318 0.24333021 -0.068922855 -0.38973194 0.13418728 0.32805365 0.23084664 0.005973476 -0.33003342 -0.105849884 -0.12733674 0.15680131 0.20415026 -0.36619273 -0.08138142 -0.006286462 0.061423313 0.1430697 0.41828185 0.30293387 0.27923313 0.21213864 0.13211516 0.14589366 -0.58737046
supervision -0.026127694 -0.24564809 0.39775714 -0.07390035 0.24848524 0.038376305 0.29390886 -0.029410137 -0.38051438 0.1092864 0.37366718 0.198229 -0.048630446 -0.23829788 -0.10800506 -0.056103658 0.23023193 0.21448024 -0.31605837 -0.009383845 -0.023864927 0.07280114 0.16294524 0.44194967 0.18345428 0.3333538 0.28290623 0.11178223 0.09611003 -0.5393562
growth 0.022830678 -0.22764347 0.417036 0.009091098 0.23002058 0.0207957 0.24047753 -0.06748379 -0.33403108 0.1634899 0.34895173 0.23509419 0.025564406 -0.3007393 -0.09770888 -0.091773815 0.19922681 0.22737503 -0.34163496 -0.055409774 -0.017927404 0.112249464 0.13990515 0.36615986 0.24271709 0.28215244 0.19060487 0.100171775 0.1025356 -0.49897662
deposit -0.04588899 -0.26272446 0.3856762 -0.04369558 0.25100565 0.027436038 0.30491978 -0.06791238 -0.4239752 0.21188228 0.39062333 0.20572722 -0.02549178 -0.29521948 -0.15089342 -0.13175592 0.16615681 0.25801995 -0.31989408 -0.018392628 -0.00078306074 0.033708002 0.14676645 0.47362646 0.25695157 0.2728479 0.2250817 0.13452423 0.07312158 -0.62857103
nibaf -0.010453357 -0.28710553 0.38076386 0.006478139 0.21767005 0.03210458 0.3163992 -0.07662683 -0.3990175 0.1246744 0.36225608 0.27763766 -0.045490436 -0.32347828 -0.12484496 -0.1281307 0.17305854 0.20648758 -0.31662166 -0.02935711 -0.0019382425 0.041287813 0.12032915 0.4168951 0.2884313 0.30115908 0.22033325 0.12004843 0.06484929 -0.59266406
tenor -0.043032028 -0.33147916 0.46772236 -0.006260204 0.32998046 0.0010850652 0.33716205 -0.10946524 -0.44872364 0.09885598 0.45857683 0.292798 -0.039130185 -0.28694522 -0.066527374 -0.044380672 0.25546217 0.34681264 -0.3971525 -0.07066843 -0.046315175 0.07045241 0.111385316 0.42828393 0.2911654 0.3394144 0.2908039 0.14682485 0.09874961 -0.63906854
view -0.041609854 -0.2422819 0.43797585 -0.01346594 0.22871032 0.054031614 0.20862341 -0.009956035 -0.3487162 0.13296503 0.32914025 0.21614017 -0.025730269 -0.24491069 -0.07720477 -0.12309487 0.23374741 0.2781406 -0.28998977 -0.03335364 0.005660172 0.040195655 0.14025402 0.44736797 0.21736987 0.27924153 0.19912076 0.12925626 0.06873728 -0.504614
2022 0.004990132 -0.22719197 0.39162087 -0.034467407 0.21453013 0.029326903 0.30307734 -0.05155065 -0.38246596 0.15621223 0.30157378 0.23928209 -0.051988102 -0.2855397 -0.106564224 -0.056035906 0.18111312 0.26371893 -0.33041355 -0.05320606 0.0070301075 0.10158972 0.13477428 0.46411335 0.26452255 0.30810088 0.25191283 0.09743979 0.07837798 -0.585675
floating -0.026925508 -0.29067972 0.44360885 -0.0014614299 0.28185683 0.036478315 0.3184214 -0.058428712 -0.38952267 0.16220757 0.41966295 0.24278471 -0.0076280218 -0.32011044 -0.10783056 -0.118904 0.2374552 0.26527107 -0.36321384 -0.06780991 0.03427821 0.0017706366 0.12188235 0.43071818 0.24476446 0.33190688 0.25599763 0.16605245 0.080923505 -0.67337656
supervisory 0.0043883966 -0.27310058 0.4493051 -0.059471976 0.283325 -0.0018161125 0.3276366 -0.04526738 -0.4125645 0.1738395 0.3481353 0.20458615 -0.015467374 -0.2759069 -0.12777159 -0.13166153 0.26011902 0.26612586 -0.35966575 -0.037658058 -0.01994842 0.081757 0.14741422 0.48116806 0.23047343 0.3274701 0.27544427 0.11097837 0.059290472 -0.56300324
three 0.00073498226 -0.2487497 0.39913177 -0.022792365 0.19992591 0.052169994 0.26426148 -0.046500422 -0.3444963 0.12137655 0.32300523 0.20496261 0.01807116 -0.28216732 -0.0713594 -0.06409856 0.17346577 0.26389974 -0.31054488 -0.072407536 -0.0040990254 0.061873578 0.08095719 0.41194293 0.19577353 0.25533533 0.23520377 0.13779113 0.10344157 -0.58946776
subsidiary -0.011433297 -0.23272684 0.4296415 -0.004450884 0.27195755 0.054403327 0.25460497 -0.092279986 -0.391975 0.12782852 0.33630776 0.19706717 0.027976971 -0.28584096 -0.10257176 -0.1281121 0.16697918 0.20738547 -0.31154856 -0.07557738 0.031577956 0.060476705 0.15713207 0.4221111 0.2509604 0.27999455 0.2308644 0.121666 0.11925584 -0.5596138
pib -0.030972535 -0.3046005 0.4690486 -0.058505807 0.34965944 0.047014862 0.28784916 -0.037401028 -0.42766833 0.17840303 0.44793114 0.31341454 -0.01568495 -0.31436977 -0.11798836 -0.050338387 0.25416535 0.28406778 -0.40568182 -0.060948055 0.004476426 0.0012868872 0.1619314 0.4430383 0.2912452 0.35644484 0.26644638 0.18967518 0.098090015 -0.71101797
national 0.02695114 -0.20892715 0.44562578 -0.039241005 0.20888233 0.072941795 0.23986363 -0.013778297 -0.3473314 0.17306688 0.35831115 0.22596504 -0.03188222 -0.26695797 -0.04386152 -0.12802148 0.19764788 0.23966399 -0.31142813 -0.017847195 -0.011477987 0.08129951 0.106729254 0.41740665 0.26962987 0.31140065 0.20378365 0.12012206 0.12878817 -0.51616395
itod 0.013838928 -0.27888384 0.4154184 -0.050122604 0.24807203 0.059721828 0.27713978 -0.099586055 -0.35057688 0.18543448 0.3886893 0.26204777 -0.043447852 -0.31595477 -0.09624418 -0.12706237 0.18100087 0.26173288 -0.36706433 -0.104832195 0.03459672 0.047343075 0.11399202 0.42951477 0.25362054 0.3020005 0.21350186 0.16099092 0.13459904 -0.641476
business 0.03713558 -0.25004372 0.4027375 -0.040112723 0.30430764 0.078914076 0.29700348 -0.11521041 -0.37327516 0.12868346 0.35521185 0.2629312 0.014149597 -0.32362166 -0.085659415 -0.096684 0.24243914 0.2850666 -0.3650981 -0.042589366 0.011276278 0.04325419 0.18729475 0.4408319 0.27382848 0.3043984 0.21977589 0.12115948 0.12873365 -0.64677507
made -0.0037836165 -0.27938154 0.39267114 -0.055596657 0.27179676 0.015647044 0.2985713 -0.07062508 -0.36067677 0.18549521 0.32671222 0.20112532 -0.017700085 -0.2561528 -0.05772334 -0.10538331 0.2124939 0.26629227 -0.36314058 -0.026703296 -0.017227331 0.079885006 0.14712918 0.430492 0.22008306 0.30436805 0.24785069 0.15856108 0.06625468 -0.5550575
2 -0.009131433 -0.28116995 0.4359677 -0.040406402 0.26334327 -0.0009410911 0.27747193 -0.05715854 -0.3837153 0.09383908 0.4230397 0.23044701 -0.04000129 -0.24429265 -0.06043026 -0.048630103 0.23738454 0.26592416 -0.35747597 -0.027671773 -0.04338019 0.07205732 0.14204633 0.3999679 0.24778876 0.33062798 0.2893867 0.15599756 0.108245276 -0.5994784
regulation -0.0016224913 -0.2484058 0.38220203 -0.018634211 0.20881532 0.030353619 0.2734879 -0.03790736 -0.36479163 0.10694098 0.3216222 0.2408451 -0.04735159 -0.23585062 -0.090345144 -0.0857754 0.19145559 0.21222124 -0.30933994 -0.022979498 -0.016571254 0.068352036 0.14039145 0.4112356 0.2588526 0.2796531 0.23628774 0.101903684 0.094769694 -0.51920074
into 0.009857552 -0.28011426 0.41809547 -0.08047521 0.2569881 0.047003835 0.26893726 -0.019708168 -0.352028 0.13609427 0.3019666 0.19495232 -0.03580709 -0.26599437 -0.052668188 -0.09082219 0.20995829 0.27584973 -0.3764952 -0.029529251 -0.009119514 0.1086078 0.09725136 0.40530458 0.23436448 0.31784892 0.21229096 0.12226485 0.09823012 -0.58327955
training -0.047106083 -0.27152598 0.40123186 -0.00016795838 0.25679204 0.059384592 0.2885148 -0.08535699 -0.36998203 0.14200331 0.38447618 0.2486059 -0.050392877 -0.29537147 -0.062054712 -0.122415334 0.1921011 0.23950383 -0.31946215 -0.053966656 0.04029199 0.038877062 0.16497257 0.39067727 0.28793553 0.29667294 0.24598725 0.11603473 0.12889268 -0.57830095
price -0.03911974 -0.32517576 0.46213305 -0.04525736 0.24357729 0.04308682 0.28731924 -0.10184281 -0.36903378 0.123153344 0.42301148 0.25415778 -0.029256571 -0.31278387 -0.11028808 -0.086714715 0.21341275 0.3300326 -0.3541197 -0.0714407 -0.017512461 0.047069754 0.16220033 0.46119112 0.27232113 0.31685513 0.2600498 0.17398037 0.06987859 -0.61717534
well 0.018611392 -0.22540751 0.3862429 -0.0070880805 0.22484082 0.025749661 0.29006416 -0.102629095 -0.3606674 0.14658087 0.30464512 0.21854952 0.013443743 -0.2961136 -0.10763693 -0.074362226 0.18852411 0.2225325 -0.32593104 -0.05726494 0.03197505 0.067139484 0.156193 0.37324288 0.24507563 0.31841862 0.2276749 0.12106243 0.10251674 -0.5632189
conduct -0.05177766 -0.26188552 0.39405128 -0.02779031 0.25934023 0.037391312 0.28642708 -0.06549665 -0.31498414 0.098232426 0.32896906 0.21475343 -0.0018495048 -0.26577803 -0.1070996 -0.058933347 0.18930757 0.2369018 -0.34814265 -0.02339997 0.039061062 0.06862031 0.1464919 0.3979481 0.262565 0.30491075 0.21698649 0.11371532 0.06200807 -0.49758005
regulate -0.030166779 -0.2043103 0.39068007 0.015789775 0.2312108 0.051263805 0.254415 -0.053057805 -0.31068516 0.16199803 0.3037486 0.19213703 0.013596476 -0.2825466 -0.08707545 -0.06465471 0.1454142 0.20657066 -0.31757498 -0.025334682 0.043094873 0.052476548 0.14564487 0.36642182 0.20369183 0.25698772 0.19948274 0.09319466 0.095336534 -0.5244614
including 0.0066897054 -0.21182176 0.39708534 -0.010976264 0.22861694 0.04820596 0.25627732 -0.06850022 -0.34472334 0.1725142 0.35403216 0.24633151 0.0061264792 -0.31449553 -0.08703096 -0.1137919 0.2208448 0.27361998 -0.35356486 -0.04527321 0.032279782 0.075944096 0.12903003 0.39634112 0.27210686 0.2515182 0.20682096 0.10798789 0.074147455 -0.5833404
responsibility -0.049888887 -0.2008748 0.3715064 -0.013224219 0.20853946 0.056476176 0.25534162 -0.08150367 -0.29021522 0.14027637 0.3258616 0.21843222 -0.04971364 -0.29345855 -0.048552666 -0.08371261 0.16947675 0.23161542 -0.3179047 -0.06427827 -0.015936302 0.10435364 0.11629007 0.33502346 0.21444914 0.3013025 0.19630317 0.07902466 0.09826682 -0.51104516
goal -0.015500904 -0.25448442 0.41776347 -0.025249308 0.2282202 0.04487904 0.2962853 -0.11549969 -0.3846158 0.17311722 0.2907537 0.234396 -0.040159274 -0.25513822 -0.1031693 -0.123161145 0.18669371 0.23196056 -0.31370917 -0.023374615 0.012178923 0.09580813 0.14480762 0.410395 0.21445878 0.27354562 0.23336622 0.15524338 0.08322526 -0.6068355
are 0.0060516163 -0.20169532 0.36417353 -0.016597126 0.19614758 0.06360866 0.3043173 -0.08016737 -0.33317155 0.1574209 0.33312115 0.18607916 -0.00079242105 -0.28008342 -0.094265595 -0.07817632 0.18559247 0.26759887 -0.33284295 -0.05089367 0.0046950863 0.03746019 0.08994201 0.4130602 0.21194279 0.2804709 0.22652769 0.10056652 0.081860416 -0.5734028
that -0.040528025 -0.25413075 0.4546938 -0.058364436 0.23583172 0.08207871 0.31949896 -0.026403407 -0.40473554 0.1790721 0.32497552 0.26405844 0.002296609 -0.29415318 -0.07139742 -0.12403721 0.22538483 0.27553922 -0.3304359 -0.03295281 -0.00016812744 0.08782902 0.11530321 0.4021174 0.25412497 0.26787314 0.2319948 0.13772342 0.1330446 -0.6130573
order -0.018621752 -0.25063264 0.3880722 -0.015248492 0.24193507 0.033650614 0.25558215 -0.04382538 -0.3567985 0.13724807 0.3443122 0.2258906 -0.012119317 -0.24720599 -0.06155767 -0.07902518 0.1998066 0.23193318 -0.30578348 -0.028111799 -0.008826245 0.05820499 0.12328355 0.3816045 0.24859193 0.2444309 0.21178913 0.1299203 0.115154274 -0.55140936
5 -0.055236224 -0.27969477 0.46289718 -0.004680012 0.32250652 0.04058197 0.34531534 -0.040123515 -0.41853794 0.14233276 0.4500168 0.24222858 0.0068088085 -0.32906792 -0.11452841 -0.082194366 0.2936811 0.30684015 -0.39599758 -0.069550514 -0.028687555 0.06981295 0.11456045 0.43011606 0.2795785 0.37201405 0.2838614 0.19441561 0.08978368 -0.6688332
maintain -0.033827752 -0.22265029 0.41992816 -0.047896016 0.2546476 0.080613695 0.23809904 -0.086219355 -0.37897998 0.15710758 0.3241179 0.24195445 0.029731315 -0.29705667 -0.12350515 -0.082773596 0.16928078 0.20591423 -0.36301476 -0.05755533 0.010080297 0.07849244 0.12223585 0.43767196 0.26066896 0.25724787 0.2518816 0.0921087 0.09638992 -0.5520958
cut -0.026790787 -0.33299166 0.45509008 -0.03130419 0.27499598 0.009808078 0.2875075 -0.061605226 -0.42569813 0.10380685 0.47322035 0.2901684 -0.012122566 -0.27584216 -0.119048916 -0.04179418 0.22599025 0.30225807 -0.43042928 -0.05460126 -0.045948252 0.096740104 0.17139575 0.42154068 0.29476246 0.37671474 0.25800237 0.18356942 0.04915106 -0.62857664
sector -0.0018380686 -0.23045479 0.37385127 -0.02143043 0.22513261 0.05354673 0.29904884 -0.082105346 -0.38003433 0.11568424 0.32899657 0.21844593 -0.0121241845 -0.2843968 -0.058885 -0.095687486 0.21445133 0.24949296 -0.36305663 -0.053765483 -0.015946748 0.054089017 0.11934629 0.41224706 0.24420537 0.32446775 0.20995462 0.10237231 0.11766144 -0.5430169
approve -0.024040429 -0.25929904 0.37590164 -0.011000978 0.20669998 0.014788257 0.23880644 -0.043317195 -0.34503427 0.16467442 0.37703952 0.20427792 0.012007025 -0.27640072 -0.06964177 -0.107239984 0.2454057 0.21890314 -0.31351182 -0.018958384 0.0023408954 0.083166495 0.15904927 0.42578346 0.25452203 0.28353903 0.2163521 0.15605047 0.10699193 -0.58171564
12 -0.020282727 -0.28631046 0.43053648 -0.0377219 0.29288828 0.03491521 0.3139203 -0.08514132 -0.38057604 0.12779105 0.45596012 0.28712732 0.009129293 -0.32104966 -0.09995179 -0.0588285 0.26839146 0.30295426 -0.4159877 -0.04771329 -0.022038182 0.045127552 0.12878451 0.41872498 0.24998562 0.29836404 0.2687404 0.18723717 0.056110937 -0.6058611
ordinance 0.009233455 -0.28661603 0.4283551 -0.0027343244 0.23076302 0.058358517 0.31427005 -0.05326489 -0.37295833 0.1621361 0.35640886 0.23180723 0.011785437 -0.32922745 -0.10556985 -0.1130295 0.23802438 0.23525189 -0.34898746 -0.04915135 -0.0025570903 0.045780156 0.106142305 0.4568864 0.22889584 0.3347787 0.22941436 0.10933788 0.09798421 -0.5921542
effective -0.019791279 -0.22926286 0.37943587 -0.06534819 0.23594919 0.052738264 0.26174492 -0.105737135 -0.39747065 0.14723426 0.38070622 0.21340758 -0.02984249 -0.27649724 -0.08195556 -0.12646446 0.24187195 0.22156018 -0.33164853 -0.016328868 0.023691814 0.101356074 0.1613264 0.43534353 0.21851665 0.31946126 0.19639772 0.11576898 0.12829705 -0.6190426
investment -0.035016004 -0.2546597 0.3948209 -0.008097303 0.23300292 0.07131857 0.26134458 -0.050974324 -0.37254775 0.12691621 0.29479927 0.22305179 0.001441059 -0.25098717 -0.10332231 -0.08195322 0.22300883 0.21404985 -0.34277272 -0.047847096 -0.0055275587 0.09155576 0.1524017 0.42553565 0.25980723 0.24168073 0.20853966 0.10167887 0.072435744 -0.5866191
protection 0.002114332 -0.25971082 0.37486532 -0.010405259 0.24454781 0.053148277 0.30108926 -0.07940835 -0.39875373 0.20022167 0.3745697 0.21875006 -0.0030374345 -0.29743862 -0.121893644 -0.07579517 0.17454161 0.29506394 -0.36471328 -0.07250702 -0.02918366 0.05265266 0.11866529 0.43860984 0.26648042 0.31404108 0.22505452 0.14380193 0.09309459 -0.61968756
purpose -0.013488161 -0.27360958 0.40740526 -0.048111126 0.25740713 0.05069155 0.25243562 -0.03677516 -0.38563406 0.15100119 0.3476411 0.2152839 -0.033588376 -0.32072324 -0.09970004 -0.12931511 0.19426867 0.21916254 -0.30771592 -0.06338032 -0.023458201 0.09434553 0.10508469 0.42033604 0.24848938 0.28114077 0.1915808 0.115708366 0.14203961 -0.55132073
office 0.007960496 -0.24465536 0.4146932 -0.03309118 0.26847824 0.072578125 0.29353368 -0.042259227 -0.39883435 0.15143368 0.383949 0.2416247 -0.04095846 -0.29186553 -0.110388614 -0.112266764 0.18882942 0.27307022 -0.33309567 -0.032883037 -0.005549806 0.100636825 0.09763904 0.37883896 0.23084745 0.2610762 0.20691511 0.12805453 0.109308265 -0.5679506
promote 0.0104862265 -0.23169371 0.3914918 -0.03141994 0.25948867 0.06246199 0.25450104 -0.056107398 -0.3610192 0.12630114 0.28435424 0.21139556 -0.031041214 -0.28013682 -0.08486035 -0.08524711 0.15800777 0.24507406 -0.30277225 -0.029916093 -0.006798611 0.11174332 0.14858857 0.39622188 0.22040544 0.24743997 0.20044379 0.12111288 0.10819737 -0.5334249
resource -0.045592513 -0.2146226 0.3681167 0.024653725 0.23682214 0.011198255 0.28509223 -0.05409191 -0.3750725 0.10929037 0.35717598 0.22456981 0.030285759 -0.3241753 -0.09977089 -0.069993734 0.18664126 0.22033466 -0.35865566 -0.076927245 -0.011413431 0.104783736 0.120126605 0.36564302 0.25941217 0.26795405 0.21760927 0.12091652 0.08984862 -0.560783
non -0.02670181 -0.25257003 0.43156838 0.018751945 0.24486913 0.036297858 0.2948193 -0.061326906 -0.4050918 0.11707988 0.3247963 0.2495489 -0.038559396 -0.31179106 -0.070725575 -0.109177314 0.22957276 0.2407962 -0.36405882 -0.06905891 0.028522247 0.08589262 0.07924816 0.41601983 0.2218064 0.30268705 0.22109255 0.16084994 0.07394084 -0.623493
internal -0.024287308 -0.24000005 0.40676102 -0.047784325 0.2011005 0.019467173 0.27521032 -0.085605286 -0.34708935 0.15937176 0.35666674 0.23102446 -0.009884164 -0.27817422 -0.10908896 -0.1162167 0.24207067 0.2219369 -0.36274654 -0.038927183 0.032615785 0.06720582 0.14450003 0.39869764 0.21427272 0.24959771 0.18647274 0.094084285 0.07418514 -0.52563286
currency 0.015569672 -0.2315108 0.39555538 0.006553637 0.22581044 0.027116578 0.2683359 -0.05699037 -0.3572237 0.12896965 0.35964137 0.24150755 -0.038115263 -0.2950171 -0.079272926 -0.08620705 0.16271134 0.2627491 -0.33989698 -0.031340513 0.045329776 0.07595067 0.14209811 0.37778702 0.19528303 0.28543726 0.20666033 0.08323983 0.12215073 -0.5645582
16 0.0012575521 -0.29777753 0.37876195 -0.05376672 0.30047593 0.023448322 0.3016635 -0.072754085 -0.35634658 0.16990899 0.42920995 0.2888088 -0.04565904 -0.3234087 -0.11610238 -0.0939911 0.24670954 0.28047708 -0.3708194 -0.039216965 -0.009449189 0.014108197 0.1490221 0.37960687 0.24148995 0.29597136 0.27545014 0.14267875 0.10663709 -0.6304331
achieve 0.028042225 -0.2498807 0.39064053 -0.010482803 0.24129823 0.02534687 0.23413071 -0.0955667 -0.31043214 0.12319949 0.31303862 0.21368371 0.01969863 -0.28237453 -0.07992018 -0.089616776 0.1459707 0.25282267 -0.31781128 -0.024781201 0.0101721175 0.088599876 0.12724783 0.41919896 0.18992557 0.28230193 0.23584211 0.11994828 0.10366023 -0.5169244
federal -0.0003535847 -0.24784292 0.39959133 -0.018492635 0.23613736 0.076886 0.24784353 -0.07010339 -0.38614178 0.14200741 0.29179895 0.23343083 -0.016558645 -0.27937993 -0.06728777 -0.110394545 0.19944994 0.21890411 -0.33875847 -0.07769401 -0.017111782 0.107228816 0.087174244 0.4106057 0.21893564 0.26886344 0.22646469 0.09952776 0.07189599 -0.58059543
two -0.052150466 -0.27260303 0.37954667 -0.026923891 0.24179953 0.011031215 0.27410412 -0.06252448 -0.37853006 0.1065514 0.32568955 0.20239206 -0.048603125 -0.29972383 -0.080059566 -0.115999885 0.18328877 0.25688326 -0.30874544 -0.07429331 0.026601952 0.042301066 0.12521417 0.43279386 0.21935456 0.3108804 0.22828135 0.14380918 0.1192963 -0.58792555
related -0.03240145 -0.26363355 0.37523344 -0.056640934 0.23148921 0.008772248 0.2662034 -0.0687281 -0.31882194 0.10709899 0.3102774 0.23262182 0.02064535 -0.26565462 -0.093917415 -0.10318005 0.19401312 0.20148814 -0.3508795 -0.053356193 0.0117194075 0.09394025 0.085169315 0.39403686 0.22548428 0.25379834 0.22078301 0.14322348 0.06874108 -0.5429105
application 0.01584156 -0.2623759 0.42251304 0.0018020167 0.30990112 0.06380342 0.33294544 -0.1151136 -0.35183266 0.17054117 0.3459703 0.24839492 0.01679802 -0.2694493 -0.13867165 -0.08350594 0.22601329 0.2683185 -0.33687198 -0.093242876 0.03921191 0.03575755 0.17597707 0.4786216 0.23695794 0.27436203 0.26604673 0.105994046 0.076310344 -0.62767744
1980s -0.027164305 -0.20638789 0.43316606 -0.03297151 0.26906008 0.08716433 0.28657746 -0.026126577 -0.32619515 0.16726837 0.33552343 0.23704182 -0.05394324 -0.23376322 -0.052192595 -0.052404474 0.16339804 0.22594377 -0.33200723 -0.016223047 -0.029535968 0.069115244 0.14157169 0.43273082 0.22284737 0.29541442 0.23537542 0.115751214 0.10549993 -0.58337635
or -0.016706007 -0.22462791 0.41034478 -0.056670725 0.20594357 0.061157007 0.26917264 -0.08519693 -0.33161458 0.15276249 0.29567018 0.25967947 -0.033619385 -0.2810206 -0.050888035 -0.08861811 0.17077138 0.23891608 -0.34585083 -0.07040569 -0.0128940875 0.085756995 0.085094504 0.4178746 0.20974149 0.2945656 0.19619672 0.10801605 0.11187146 -0.5903284
information -0.009164752 -0.26371276 0.36953497 -0.054303464 0.27653506 0.024266906 0.30453193 -0.10324872 -0.3589089 0.13833283 0.31849268 0.22592644 -0.047530867 -0.29303184 -0.11060366 -0.088353954 0.17986543 0.19757049 -0.3220538 -0.07572202 0.033419494 0.094368376 0.16773553 0.40089417 0.1959172 0.29470164 0.19149236 0.15270641 0.12556793 -0.57834595
risk 0.013116601 -0.21819206 0.39809662 -0.007255705 0.26467815 0.049265668 0.23874262 -0.08526952 -0.35820705 0.13474636 0.35969314 0.18930681 -0.015082834 -0.23923938 -0.09493972 -0.11822844 0.21651943 0.21716627 -0.34922835 -0.060521606 0.002791305 0.084819585 0.14579391 0.43290848 0.2554285 0.29698732 0.19208321 0.1508549 0.056894828 -0.5730432
e 0.014947939 -0.23716305 0.40981197 -0.055025462 0.2921838 0.03443331 0.27722427 -0.043671127 -0.36548477 0.1681354 0.36129412 0.28071547 0.011814025 -0.27451319 -0.060337856 -0.11540616 0.22684725 0.25573736 -0.3409695 -0.017899595 0.024349626 0.08280477 0.15954386 0.45885712 0.25131738 0.2793817 0.23067664 0.17786093 0.08636308 -0.6112244
technology 0.00043794105 -0.27912408 0.41662276 -0.024615493 0.26019192 0.068185925 0.28547555 -0.059289254 -0.38456598 0.17877105 0.2938755 0.26063582 0.0027873772 -0.2698427 -0.12798259 -0.042729076 0.19001585 0.24175999 -0.3411672 -0.085116334 0.0125721255 0.05279552 0.11152278 0.36542434 0.23672146 0.2834125 0.21776621 0.14610721 0.08758339 -0.5892712
based -0.004911435 -0.24870355 0.37559333 0.002424986 0.22652486 0.05274409 0.2714594 -0.050260685 -0.3494886 0.16365446 0.32078597 0.19523315 -0.010929166 -0.26758584 -0.07110306 -0.1008269 0.20943509 0.21954869 -0.30759868 -0.021605955 -0.022458557 0.05189261 0.08526305 0.38848075 0.212027 0.28696084 0.2141273 0.12340411 0.10417454 -0.5080058
instrument 0.00022562717 -0.24376722 0.37805134 -0.034491673 0.19092481 0.023969932 0.2705688 -0.054079648 -0.37139964 0.10551881 0.30039778 0.24445947 -0.041211165 -0.26351935 -0.063183576 -0.06681559 0.17138274 0.25219 -0.34778732 -0.0037897984 -0.0016027284 0.051831644 0.14356999 0.39615273 0.25540024 0.24786077 0.2291303 0.09049465 0.12146078 -0.55658084
value -0.030011354 -0.22037116 0.3635559 -0.026230007 0.20850219 0.0054613324 0.21995474 -0.08839001 -0.35129446 0.11924712 0.33669975 0.1967249 -0.0394363 -0.26889816 -0.06718175 -0.09764254 0.17885208 0.20630592 -0.28129643 -0.0726765 -0.027105559 0.0922236 0.092426375 0.3781943 0.2147959 0.30024582 0.21449424 0.12168984 0.09842276 -0.50222325
required -0.008682881 -0.22858754 0.3877343 0.0011779605 0.24151434 0.039177656 0.24677187 -0.04338076 -0.35641962 0.13248964 0.28353676 0.21895361 -0.042974662 -0.24698289 -0.054161396 -0.09010873 0.15226409 0.18989074 -0.29923284 -0.06455087 0.026901586 0.06608495 0.1438558 0.36918768 0.20162933 0.24965449 0.20577954 0.09923242 0.112199955 -0.53128785
group -0.024929939 -0.25145426 0.38364515 -0.059699748 0.2302616 0.03308634 0.29380837 -0.04001662 -0.34337956 0.17236829 0.36829427 0.2369754 -0.043968104 -0.2536779 -0.0877041 -0.0838013 0.20086214 0.27209035 -0.32076854 -0.07539825 -0.003444499 0.07105895 0.13219506 0.38568997 0.24970871 0.3021725 0.22310263 0.121015996 0.078055404 -0.54135126
primary -0.04849835 -0.25632396 0.3915087 -0.055819698 0.21534483 0.031009864 0.2568666 -0.08807054 -0.31724447 0.12789996 0.32742852 0.20828111 0.017025689 -0.298907 -0.06536957 -0.10616159 0.1865892 0.19257647 -0.3295277 -0.080436945 -0.011174991 0.107295044 0.12972078 0.39318255 0.19697303 0.28163737 0.1845845 0.110746525 0.063459516 -0.55101
different -0.01202204 -0.23155019 0.37558398 -0.023744863 0.20238374 0.033225574 0.23974462 -0.07859604 -0.35750186 0.13500088 0.32210726 0.19573432 -0.025337093 -0.2348112 -0.07030655 -0.112981334 0.2148937 0.24250354 -0.34587124 -0.03542116 0.021491075 0.04719912 0.11264866 0.35538167 0.22947416 0.29471457 0.21661863 0.10586265 0.08025332 -0.52331257
appointed -0.047810264 -0.18292372 0.32839608 -0.023969749 0.21418735 0.017134385 0.26724678 -0.086761996 -0.32741892 0.1472577 0.2708215 0.17654492 -0.02506326 -0.25518173 -0.09372777 -0.07827303 0.20248851 0.23240894 -0.27585775 -0.050442148 -0.0026783163 0.09305409 0.0725172 0.35858297 0.23391956 0.2610772 0.18955359 0.14129408 0.102343366 -0.50562966
etc -0.01786218 -0.2270673 0.42548698 -0.028684685 0.25462064 0.013184914 0.23602243 -0.078044884 -0.38345447 0.14015917 0.3275132 0.22577897 0.021517616 -0.24469669 -0.058141503 -0.09059605 0.19807848 0.25060716 -0.34863305 -0.0811484 0.02759848 0.035690296 0.14148487 0.4011052 0.21039717 0.29530036 0.19770882 0.16685323 0.07515548 -0.5981027
may 0.006501976 -0.22199911 0.39886937 -0.020402586 0.21528089 0.02875955 0.26499107 -0.029866958 -0.3604805 0.13322431 0.3310691 0.24219288 -0.03906822 -0.27463216 -0.09495134 -0.081766255 0.21038416 0.2524189 -0.348616 -0.020985592 -0.003563245 0.055573024 0.09576299 0.3664513 0.2571298 0.28662315 0.17996903 0.13249096 0.07389216 -0.5716371
matter -0.0069391686 -0.23981202 0.38566765 -0.001755317 0.26197112 0.020240946 0.2787665 -0.051669836 -0.33974397 0.16085473 0.30091345 0.21334928 -0.007067455 -0.24292682 -0.09165658 -0.058915194 0.18522082 0.1986352 -0.3563958 -0.058391992 0.04340671 0.046158444 0.10426275 0.42542115 0.19454232 0.288253 0.24189056 0.10466875 0.09005202 -0.56146437
technical 0.010096566 -0.2607873 0.36739707 0.0060621514 0.22719909 0.0716253 0.24266712 -0.045306537 -0.36667186 0.11801598 0.3354978 0.22580831 -0.018689187 -0.2741785 -0.116595306 -0.10252075 0.19630317 0.26583397 -0.31376672 -0.055832732 -0.009251716 0.08462081 0.09700407 0.4106543 0.24880503 0.27549717 0.20049058 0.09949748 0.06840255 -0.53719693
activity -0.0019308047 -0.2549278 0.4349317 -0.059797287 0.24975373 0.039943434 0.24917777 -0.09644996 -0.34424636 0.12858088 0.32048693 0.25549078 -0.038531013 -0.2885723 -0.09099896 -0.105575904 0.18227313 0.22619346 -0.37352583 -0.042139698 -0.011081735 0.06854853 0.14067227 0.4036259 0.26720807 0.3159237 0.2280166 0.12304337 0.092260644 -0.5467707
fuller 0.018795144 -0.22916113 0.37703776 -0.023499042 0.20758247 0.014063656 0.2442479 -0.09948839 -0.33355963 0.13869926 0.32249966 0.20129022 0.019223878 -0.29584086 -0.04439435 -0.08902405 0.19634677 0.23609133 -0.3132051 -0.03732431 0.010690352 0.038758095 0.11190121 0.3745934 0.18205738 0.2689686 0.22420298 0.113061644 0.11267687 -0.5084681
p -0.016044678 -0.23789972 0.35656887 -0.051720027 0.28515735 0.0160661 0.30455902 -0.045490902 -0.3996066 0.1683683 0.3848014 0.21828192 -0.043588776 -0.3088362 -0.07884812 -0.06518475 0.20095205 0.2523412 -0.3790626 -0.07575932 0.022264054 0.004509261 0.09618772 0.3994063 0.19463794 0.2650005 0.25736952 0.17303902 0.06475976 -0.5453477
regulatory 0.022436516 -0.21709839 0.36840543 0.010617478 0.19051237 0.023110313 0.27092606 -0.094732426 -0.38302004 0.15095462 0.35578173 0.18604328 -0.023753686 -0.24962807 -0.08048686 -0.12479983 0.22247799 0.22471522 -0.30805197 -0.02909298 0.03052817 0.09849233 0.14641331 0.36019728 0.23181877 0.26863733 0.21388085 0.15244058 0.11302962 -0.5621345
these 0.017761424 -0.25401056 0.41330308 -0.0015930044 0.22245269 0.04478181 0.28612086 -0.048733052 -0.35456175 0.13884285 0.31864217 0.21872413 0.020327583 -0.31629527 -0.05737019 -0.10188698 0.19829789 0.2801119 -0.31501508 -0.029661598 0.035925712 0.03446722 0.15756387 0.38366145 0.21871684 0.2692355 0.23644938 0.16067845 0.08094138 -0.5941399
make -0.024241708 -0.241395 0.36263305 -0.010132642 0.234422 0.040518355 0.2367103 -0.07163771 -0.34026355 0.14584672 0.34899685 0.23965465 -0.037382662 -0.27851504 -0.119510606 -0.108989656 0.19794516 0.20350373 -0.30860606 -0.015303443 0.021188963 0.067307875 0.1487781 0.39210492 0.21544047 0.23851147 0.20007367 0.14551221 0.11873659 -0.5396244
use 0.016078735 -0.22334342 0.40272662 -0.0475686 0.24247111 0.049335577 0.2249395 -0.045596648 -0.37580624 0.11921705 0.33345085 0.25011292 -0.018759815 -0.24463123 -0.06741153 -0.07672132 0.17053755 0.24948242 -0.3529751 -0.0589336 0.023881001 0.038821857 0.14345847 0.37897015 0.22799323 0.24988092 0.1911785 0.10734628 0.1271994 -0.5255953
practice -0.049271144 -0.27167946 0.41013902 -0.055298906 0.26866323 0.05174362 0.22768223 -0.017955566 -0.3243084 0.13425387 0.33783418 0.20072071 0.018005801 -0.23438911 -0.06306391 -0.130952 0.22514825 0.23247421 -0.3370128 -0.022033202 0.0042839036 0.088254616 0.09749129 0.43416587 0.2103018 0.3027235 0.23518036 0.14748 0.13197647 -0.5594087
corporation 0.0066858316 -0.21510649 0.36121106 -0.0011739447 0.19281769 0.07288168 0.29700696 -0.048296444 -0.34054956 0.17286938 0.32715213 0.20153515 -0.028125636 -0.27189362 -0.113463685 -0.13360141 0.15701723 0.27629054 -0.28640047 -0.030954493 -0.017596664 0.05862759 0.09039123 0.42983645 0.23402575 0.30148393 0.19384111 0.11199787 0.10304325 -0.5557674
like -0.03563792 -0.2333407 0.34011993 -0.055852905 0.21944292 0.048084717 0.21516801 -0.074129745 -0.3317748 0.11091395 0.308864 0.18753248 -0.036571924 -0.20663467 -0.10625486 -0.06049326 0.19609517 0.20748408 -0.31378284 -0.018752739 -0.013473015 0.037206642 0.13922985 0.3126514 0.16807318 0.22080222 0.20441152 0.11588755 0.061685868 -0.4910944
law 0.016774114 -0.21943904 0.44092453 -0.027875733 0.25782144 0.055836692 0.2898302 -0.039712414 -0.36381447 0.14205314 0.32827175 0.19874132 0.014249505 -0.29434222 -0.07671673 -0.08939208 0.19394232 0.2229825 -0.34883723 -0.062106676 -0.025047299 0.058102634 0.14242028 0.4341806 0.23366985 0.32046565 0.2102256 0.11970812 0.067138255 -0.6081076
developing 0.014844489 -0.24246877 0.3371484 -0.04297906 0.22612867 0.033574797 0.24526602 -0.0845418 -0.33577433 0.13658895 0.29712293 0.16822931 -0.031615656 -0.2437675 -0.112451464 -0.08590732 0.17163162 0.2509343 -0.2970151 -0.018112974 -0.013395024 0.04044569 0.1366322 0.3588824 0.20530611 0.25313228 0.2296244 0.07617535 0.078850396 -0.4918815
traditional -0.016501637 -0.18339832 0.35399798 -0.051724207 0.18234901 0.0031279982 0.21708666 -0.086714275 -0.34572425 0.1274565 0.2987325 0.18570031 -0.0027016983 -0.23941603 -0.05219251 -0.10706077 0.19383673 0.24399059 -0.31989118 -0.06639153 -0.0016927986 0.045658328 0.13569434 0.39936057 0.24002966 0.22821458 0.22077933 0.13376637 0.1060175 -0.5452131
01 -0.0029779717 -0.266359 0.36515477 -0.004634221 0.26462197 0.08190775 0.25043806 -0.055585306 -0.38076997 0.17015721 0.28822315 0.2588882 -0.043583557 -0.30671662 -0.08565711 -0.07948047 0.1553953 0.22528678 -0.33567193 -0.079416215 0.029606186 0.0816641 0.14862171 0.43266562 0.21895996 0.29883882 0.23785006 0.14941715 0.11908525 -0.5879011
28 0.012752407 -0.24099877 0.4081139 -0.040117078 0.23943774 0.081911296 0.2465729 -0.033898465 -0.36480325 0.13979948 0.3183997 0.22695264 -0.0014839326 -0.27485368 -0.11453564 -0.05428278 0.18886475 0.20505552 -0.3172181 -0.03728789 0.022776771 0.09751152 0.09578536 0.39579138 0.24212 0.27773982 0.2158786 0.1300796 0.07802715 -0.57182306
company -0.003066785 -0.24976066 0.41663554 -0.0129050715 0.2520514 0.038262255 0.2995926 -0.069337495 -0.34442696 0.12491362 0.35739824 0.23168567 -0.012250411 -0.24174115 -0.118820764 -0.055132315 0.19676282 0.22879039 -0.3466588 -0.08213929 -0.0045499904 0.08548286 0.15102953 0.43406397 0.20966317 0.32285672 0.19090782 0.14151675 0.13153039 -0.57108855
developmental -0.034597855 -0.25791857 0.3893151 -0.027450645 0.1878743 0.05032993 0.27162865 -0.055390947 -0.32731575 0.16024092 0.28210446 0.23576576 -0.0008673522 -0.29613286 -0.09100585 -0.09356333 0.18750526 0.22908099 -0.3429373 -0.04959801 0.028488172 0.07327205 0.12675859 0.39551863 0.21658343 0.24969782 0.24432938 0.08691104 0.08763678 -0.54677236
such -0.03769777 -0.22986369 0.41162205 -0.03262859 0.26607195 0.04969468 0.24416992 -0.06963233 -0.35505077 0.16242617 0.35589388 0.24936077 -0.03710389 -0.29909667 -0.06821718 -0.082372576 0.21613353 0.24353977 -0.29818216 -0.07805889 0.045237787 0.03249754 0.12140743 0.41686913 0.19816683 0.29682967 0.1941161 0.104981035 0.1023813 -0.5509051
foster -0.019984383 -0.18673836 0.34462094 -0.019383755 0.23926501 0.050864294 0.22098029 -0.05629134 -0.33913973 0.13509269 0.31170413 0.23495628 0.018724764 -0.27533153 -0.047109053 -0.10522327 0.20876059 0.19155025 -0.3316692 -0.044352323 -0.017412841 0.059753586 0.11456437 0.36903474 0.18166718 0.23084381 0.1698226 0.11005524 0.11200129 -0.50312346
stakeholder 0.021744717 -0.2608907 0.42549863 -0.0037401367 0.27357173 0.046093985 0.2708919 -0.05983988 -0.39142612 0.17111713 0.33775505 0.26415116 -0.0045700055 -0.26140156 -0.09228094 -0.13115647 0.20720209 0.24748385 -0.3692201 -0.073033415 0.0018249622 0.058084764 0.13245022 0.41466367 0.2487946 0.26538908 0.2002364 0.14750282 0.12288537 -0.5479903
money 0.003851806 -0.25535843 0.40655404 -0.04305784 0.19309917 0.0759373 0.24847715 -0.090686925 -0.3504604 0.15925898 0.30765054 0.23260823 -0.009628064 -0.24974822 -0.07622378 -0.12605575 0.17728794 0.26884145 -0.30953458 -0.07163764 0.03561548 0.08375078 0.14722407 0.38569134 0.18996294 0.25866073 0.22197999 0.1013954 0.12992284 -0.5696071
infrastructure -0.037381604 -0.26977414 0.41806906 -0.055543885 0.28311184 0.010388588 0.2922622 -0.059452202 -0.35824642 0.18119837 0.35957652 0.23868608 0.004486309 -0.2505432 -0.083532475 -0.05266959 0.20069619 0.21624185 -0.35630617 -0.06172349 -0.017789418 0.069661394 0.15791118 0.3944165 0.2529162 0.30754703 0.21961795 0.14103566 0.12386534 -0.6066462
macro 0.005172732 -0.2016095 0.36367738 -0.053238023 0.18937278 0.009189711 0.27083713 -0.05106932 -0.31213212 0.1367464 0.30605724 0.22920267 -0.04675787 -0.29783502 -0.065603755 -0.11982082 0.16632457 0.20745376 -0.2987954 -0.05884119 0.04646627 0.07383654 0.10320832 0.37359506 0.22179677 0.2372508 0.23541445 0.15481314 0.10413256 -0.56019473
plan -0.03397943 -0.24423884 0.40122533 -0.048722297 0.27385277 0.067937516 0.26665106 -0.06249419 -0.3456543 0.15494213 0.3746141 0.22773638 -0.033183176 -0.28230524 -0.12321351 -0.05848094 0.1770195 0.23925522 -0.35371563 -0.045881692 0.025204316 0.0474158 0.11151887 0.4153269 0.2511571 0.30816537 0.22044063 0.13428439 0.07309845 -0.56735945
strategic -0.040638253 -0.22018237 0.3693534 -0.05044264 0.25037965 0.044605948 0.2211545 -0.09929128 -0.33898368 0.10856724 0.33291268 0.23445667 0.008157919 -0.2863539 -0.056213327 -0.12109132 0.21864633 0.22642137 -0.32133618 -0.03770378 -0.0018293543 0.05048381 0.111596584 0.36657846 0.22195008 0.25038755 0.21894805 0.09497681 0.07710293 -0.57652885
ifpd -0.060232054 -0.24915111 0.35324454 -0.047424775 0.24505512 0.02547537 0.2909109 -0.02336165 -0.37942004 0.13802159 0.29656705 0.24083975 0.017420264 -0.2413023 -0.11527904 -0.08191335 0.1677678 0.2132757 -0.34762555 -0.08356381 0.011291012 0.08792902 0.108727686 0.38110667 0.22957243 0.26392543 0.19005272 0.1102848 0.08029999 -0.5031574
dr -0.04426605 -0.22670482 0.43018442 -0.037326116 0.23882943 0.037515827 0.3042851 -0.06617788 -0.39783624 0.122007586 0.3838472 0.20017645 -0.04153874 -0.29540953 -0.08691224 -0.09166036 0.2168665 0.26504812 -0.348067 -0.03259548 -0.012833559 0.046668466 0.09360688 0.46017906 0.24634178 0.2802174 0.25423622 0.17983297 0.11996455 -0.63624066
section -0.032931272 -0.24608354 0.3577431 0.0041379635 0.25182346 0.020653911 0.2843533 -0.0987028 -0.32504532 0.114254266 0.33936396 0.21630688 0.0006725628 -0.24127991 -0.086216584 -0.09888039 0.17243654 0.25031823 -0.31476483 -0.023444101 -0.012259459 0.027031094 0.1446206 0.3704322 0.25082633 0.30668116 0.20006764 0.12937634 0.07739366 -0.5701415
taken -0.031693846 -0.22825551 0.35584936 -0.044016212 0.21387516 0.07607613 0.26194525 -0.029903693 -0.3188442 0.12604934 0.28811246 0.23917292 0.01199338 -0.28120205 -0.056706347 -0.054377563 0.21881717 0.19328508 -0.33203167 -0.03537513 0.011521625 0.055278823 0.095005825 0.40398028 0.24449775 0.26724565 0.18972047 0.11169643 0.06692308 -0.523084
responsible -0.015124423 -0.23258534 0.34278688 -0.021943837 0.23120855 0.06502612 0.26642033 -0.06453956 -0.30004185 0.13917677 0.31394777 0.22660205 -0.033202317 -0.23449385 -0.050140128 -0.07805001 0.19000718 0.23050101 -0.31115574 -0.08082193 0.012794388 0.06560755 0.09473688 0.37942165 0.23817205 0.24272355 0.20570481 0.14760156 0.064738825 -0.5037211
formulate -0.049321074 -0.24671753 0.37902987 -0.03651004 0.19413896 0.013567547 0.21600462 -0.0901271 -0.3082733 0.13018869 0.26221117 0.17513043 -0.014597144 -0.25497794 -0.09785722 -0.09550474 0.18956655 0.2245857 -0.27250984 -0.026652433 0.0072552487 0.069367394 0.14287944 0.3693798 0.21656956 0.24541262 0.16381244 0.13112786 0.105678976 -0.49845067
strengthening 0.022253947 -0.24630666 0.38252002 -0.051951952 0.18207605 0.04282297 0.2720232 -0.037207533 -0.36796162 0.15438867 0.3274959 0.21373051 -0.010504438 -0.2360149 -0.05523531 -0.122773 0.16138071 0.25590003 -0.30896503 -0.070191324 -0.013721048 0.06767437 0.14874631 0.37008095 0.21326226 0.2414432 0.17624415 0.12834541 0.09421691 -0.5347205
fund -0.014224902 -0.26597992 0.37650186 -0.011771519 0.23872681 0.0762332 0.27966756 -0.066038944 -0.32685056 0.15764032 0.35557985 0.25197154 0.0032831826 -0.24788874 -0.05971908 -0.094835214 0.17644282 0.26648325 -0.3186755 -0.06451645 0.0031015906 0.04897315 0.15528022 0.40064353 0.24483602 0.30548054 0.237796 0.10957725 0.0776957 -0.56049836
through -0.025663456 -0.2880742 0.39951152 -0.05912889 0.28909516 0.032243375 0.26378763 -0.098675326 -0.37913996 0.112411425 0.35488266 0.2536109 -0.026390914 -0.2544693 -0.10160769 -0.1174567 0.203602 0.23764119 -0.3707753 -0.08321253 -0.013421216 0.06733394 0.15102825 0.39139223 0.22337222 0.30243814 0.22244413 0.14448537 0.09207862 -0.5671443
keeping 0.018302405 -0.25976843 0.39516187 -0.0065508974 0.22318047 0.06355385 0.22951147 -0.06450694 -0.3612044 0.1745314 0.28216603 0.19115792 -0.014982897 -0.27881727 -0.0371322 -0.11772682 0.1706283 0.27177054 -0.3407487 -0.0059799906 -0.011330758 0.080560386 0.11387909 0.37711203 0.18687509 0.25487825 0.23143934 0.15017271 0.091872014 -0.4928745
manner 0.00033610486 -0.20803402 0.36990988 -0.06427324 0.254894 0.016983896 0.2259139 -0.038733054 -0.3066782 0.10050784 0.3117429 0.2256725 -0.045013268 -0.20998353 -0.092969604 -0.04823612 0.16892 0.25111657 -0.26129562 -0.069376536 0.004434952 0.032805353 0.14218937 0.39859417 0.18556425 0.27019274 0.19080506 0.09356959 0.09651088 -0.53603965
line -0.005528618 -0.2603858 0.40634668 -0.0010685822 0.22148414 0.030133914 0.21378787 -0.030900342 -0.32966384 0.1731641 0.32819027 0.20433433 9.174168e-05 -0.2261497 -0.04398689 -0.067561485 0.16816005 0.21016018 -0.28163156 -0.06393096 0.015059561 0.094343685 0.109779894 0.41496137 0.18751004 0.3062814 0.21601093 0.1373947 0.070317216 -0.49695587
process 0.015050428 -0.24350926 0.40623334 0.0012536722 0.21813066 0.06064 0.25622264 -0.071714565 -0.3579435 0.1295972 0.32466665 0.19690007 -0.00088274945 -0.24326883 -0.070806324 -0.075668424 0.17871645 0.25079668 -0.35114554 -0.06881966 0.043771002 0.097099155 0.10768024 0.3789252 0.25420842 0.28639665 0.23890366 0.10548368 0.09237314 -0.5482021
parallel -0.011329173 -0.21491167 0.342258 -0.01938119 0.2227931 0.06808788 0.23553804 -0.0068886643 -0.3281864 0.15453842 0.2834109 0.16669701 -0.016920632 -0.2554222 -0.03507574 -0.06822912 0.17573439 0.25643194 -0.29142553 -0.0630952 0.016405862 0.04761123 0.07971978 0.40725553 0.22886728 0.30520025 0.2019207 0.1552307 0.10910008 -0.5246176
17 0.01325164 -0.2545106 0.33385268 0.0051745153 0.22492902 0.070170596 0.22713087 -0.02975496 -0.36814132 0.14573227 0.37663773 0.23738444 -0.0247852 -0.27846593 -0.11979973 -0.069485575 0.22727574 0.21480344 -0.30986884 -0.028760383 -0.025324147 0.046883304 0.09483536 0.3548404 0.22299957 0.25529614 0.20826644 0.11241852 0.06800139 -0.5655515
when 0.02722837 -0.20882922 0.3873008 -0.034201518 0.26539147 0.045329887 0.23550433 -0.07967386 -0.34301528 0.16799985 0.33930337 0.25661215 0.0039277324 -0.2628324 -0.061492044 -0.058334712 0.22820051 0.2719221 -0.36333328 -0.034717374 -0.025642067 0.051428143 0.09229717 0.4095014 0.22526428 0.2677038 0.2363061 0.14967684 0.11601955 -0.52325284
coupon -0.044294808 -0.32272315 0.45680666 -0.04208775 0.26700106 0.055619314 0.2848027 -0.08729002 -0.39530537 0.16905873 0.4433786 0.27371788 0.0061766943 -0.28148296 -0.07861513 -0.090111084 0.24347508 0.3092776 -0.42171612 -0.03444877 0.00477129 0.06930365 0.13212295 0.4186188 0.23613603 0.31697223 0.25562704 0.14838913 0.10158187 -0.61664397
rupee 0.0055004065 -0.2606698 0.35270578 -0.03061167 0.24013682 0.007167767 0.2796584 -0.0495846 -0.34593892 0.17028062 0.34242845 0.21793047 0.0042797085 -0.29192168 -0.11238609 -0.10402481 0.22179122 0.242701 -0.29886764 -0.07154081 0.019092979 0.06524674 0.1115506 0.37030914 0.23953077 0.24220747 0.22849435 0.14088994 0.07979808 -0.54036725
liquidity -0.03868916 -0.24863069 0.35467607 -0.013637701 0.2006515 0.040843572 0.2205417 -0.06899574 -0.33416763 0.109681726 0.32475254 0.24441731 0.006344367 -0.25273967 -0.09896478 -0.09123009 0.19720216 0.23951407 -0.275015 -0.048631653 0.0320934 0.0795581 0.12892653 0.4025015 0.1985998 0.2574203 0.22274052 0.15080154 0.106456235 -0.53458387
payment 0.013912855 -0.2259242 0.38198972 0.008610251 0.24010433 0.063365534 0.25646597 -0.097145885 -0.35084984 0.14607672 0.30474308 0.24536186 0.012070076 -0.2988671 -0.10504666 -0.10869611 0.19268739 0.2194208 -0.32526156 -0.05579967 0.023571031 0.09948849 0.110521816 0.3532058 0.2396939 0.25405106 0.22710715 0.13197958 0.07488778 -0.5643628
bid -0.055104293 -0.27028233 0.41903928 -0.0142201185 0.27771303 0.038524803 0.3022182 -0.07392643 -0.41378587 0.12836312 0.4131835 0.2452217 -0.024143545 -0.2883239 -0.065892294 -0.08801809 0.26766545 0.25445113 -0.40171614 -0.075019866 -0.029766431 0.05400385 0.14343919 0.41363692 0.2815867 0.31858462 0.27829033 0.15535367 0.07706787 -0.57887095
site -0.0051514767 -0.23141861 0.36976898 -0.065357454 0.2570204 0.03416854 0.27643403 -0.072913945 -0.38644904 0.105692975 0.39087713 0.22804646 -0.0282563 -0.28503516 -0.09888688 -0.12208917 0.21102406 0.24529552 -0.31529734 -0.074820526 -0.015690736 0.06621571 0.15210731 0.39722654 0.22143239 0.27022305 0.26025528 0.10133752 0.08446285 -0.5796667
measure -0.012936533 -0.26518854 0.41554925 -0.037412763 0.2321416 0.018390257 0.22842845 -0.03469929 -0.3171741 0.1446945 0.33216444 0.18421215 -0.022378692 -0.2560443 -0.07989742 -0.06144512 0.1976522 0.19989203 -0.31246653 -0.012148737 -0.023475245 0.07194577 0.10708033 0.41193926 0.23585519 0.27782464 0.2056507 0.08998482 0.11709798 -0.5412411
conventional 0.017821657 -0.21861085 0.3598162 -0.04897017 0.24590003 0.013959636 0.3043442 -0.060808137 -0.3771743 0.14914694 0.3011896 0.16547056 -0.016798731 -0.24977677 -0.10408242 -0.10550897 0.17575772 0.2469883 -0.3456071 0.008342046 0.0035048523 0.076414116 0.09827155 0.4249406 0.2098661 0.25269493 0.19754876 0.1309526 0.11882085 -0.5243453
being -0.031175707 -0.25249073 0.3451622 -0.004578939 0.18486254 0.05698538 0.25662753 -0.06200047 -0.36790055 0.15165493 0.31178403 0.18024336 -0.03815383 -0.22537968 -0.07828979 -0.11469134 0.18505588 0.24759628 -0.34154716 -0.07052246 0.0056183324 0.03146839 0.12555116 0.38556033 0.24798006 0.27132094 0.20515643 0.14122969 0.08045648 -0.5047597
term -0.00913107 -0.21983479 0.31276375 -0.03038174 0.23259026 0.049537446 0.2206753 -0.070258036 -0.34125808 0.15072995 0.27377105 0.21818522 -0.033950593 -0.26802015 -0.11077698 -0.06524777 0.14799204 0.19453408 -0.31426495 -0.062282465 -0.0040791966 0.06482351 0.12852614 0.35125056 0.18777695 0.25857064 0.2118392 0.10096369 0.07140615 -0.4879636
target 0.00844259 -0.24334227 0.37669536 -0.060089767 0.18525282 0.02354445 0.24840263 -0.056730803 -0.30639452 0.1514655 0.3141691 0.1908845 -0.03540312 -0.27124968 -0.081218384 -0.04716296 0.15291113 0.22745444 -0.2803167 -0.05829521 -0.019584546 0.042280428 0.093765035 0.33445293 0.22534671 0.22468556 0.18215102 0.12910883 0.0871689 -0.5260977
implement -0.022530114 -0.20533606 0.37043402 -0.039531115 0.21508037 0.05392052 0.2557286 -0.05515803 -0.3038735 0.11067467 0.32378083 0.17266738 -0.022116482 -0.2203265 -0.08867601 -0.061551373 0.20444506 0.19947681 -0.30894676 -0.059623197 -0.024464706 0.056485012 0.13233854 0.39634213 0.1963537 0.25396186 0.18215184 0.1250797 0.100028366 -0.54291743
operating -0.0038771227 -0.24208802 0.3478676 -0.009373946 0.18494779 0.04555727 0.22994314 -0.085582934 -0.3232597 0.14820568 0.26542175 0.17498055 -0.012975053 -0.21202776 -0.07608637 -0.05122947 0.14576356 0.247954 -0.30871263 -0.06368949 -0.023873927 0.06601181 0.10163755 0.38277367 0.20314735 0.2577136 0.21344188 0.079876855 0.08093711 -0.51602703
desktop -0.039739814 -0.22741865 0.37803838 -0.03319464 0.23333763 0.021003162 0.24924354 -0.065134875 -0.31522834 0.1565879 0.31950578 0.24045634 -0.016977549 -0.27161965 -0.101982884 -0.10270664 0.21087554 0.20669307 -0.34651172 -0.06933576 0.030537678 0.07377573 0.14513692 0.4134652 0.19856109 0.26108164 0.24552068 0.14165464 0.10904884 -0.5158162
commercial 0.015394613 -0.22851433 0.3611109 -0.00028804087 0.23651694 0.073418535 0.21560903 -0.076115996 -0.30408043 0.13283132 0.30329987 0.22762942 0.008360284 -0.2735235 -0.08931893 -0.11048884 0.20537364 0.22402202 -0.30284095 -0.036822528 0.032942552 0.096252725 0.13302262 0.37398392 0.217563 0.2835511 0.20452262 0.11853738 0.055671565 -0.49165088
backup -0.03428619 -0.2158685 0.35558367 -0.026919864 0.25074863 0.03855276 0.2341856 -0.059883382 -0.3643258 0.109023124 0.3469717 0.22918841 0.017330492 -0.2866059 -0.08495054 -0.084718876 0.22199266 0.20256208 -0.30498934 -0.085869744 -0.017188197 0.061613858 0.1273006 0.38233295 0.20767672 0.2893302 0.18560338 0.12572925 0.11143753 -0.5565757
working -0.012728327 -0.21938 0.3543855 -0.060263745 0.25409475 0.07722334 0.24063745 -0.089451455 -0.34978375 0.110426076 0.33695439 0.26282814 -0.03546327 -0.28669783 -0.051065404 -0.09171612 0.1866204 0.23255475 -0.35912824 -0.06660422 -0.0054572904 0.068002455 0.12504613 0.4266198 0.24692069 0.2717091 0.17850065 0.13768724 0.07347854 -0.5185318
among 0.004739438 -0.22187074 0.39184037 -0.034828983 0.20493335 0.03984847 0.275892 -0.027919265 -0.31391397 0.14591101 0.2877671 0.23190565 -0.04410119 -0.2582058 -0.096241735 -0.04874784 0.17027943 0.21016234 -0.28022942 -0.07383866 -0.006611656 0.07501225 0.09444432 0.392838 0.21513215 0.2445869 0.21683283 0.1369233 0.09214093 -0.48320824
upon -0.035712294 -0.2355799 0.3950601 -0.00568527 0.22057478 0.03584517 0.26987946 -0.054993678 -0.30350488 0.13528241 0.33516803 0.18889019 -0.040523857 -0.2625922 -0.0760534 -0.090275034 0.19913538 0.18684968 -0.33913285 -0.019031903 0.03077392 0.050787963 0.09497662 0.35893017 0.21551932 0.29275867 0.20517217 0.109593846 0.074905805 -0.5340262
implementation -0.047128584 -0.2012204 0.33097935 -0.036388177 0.19432908 0.07513178 0.2648697 -0.06275074 -0.31004694 0.123104446 0.34572545 0.20046484 0.006453541 -0.2676128 -0.056159347 -0.049786083 0.21326956 0.21691103 -0.31310984 -0.0764287 0.037494767 0.032367382 0.09728273 0.38941935 0.20160112 0.2825341 0.16924335 0.15308191 0.09366713 -0.54698503
upto 0.0074953567 -0.23803176 0.39509135 0.013588 0.17488636 0.0776341 0.26920646 -0.03933456 -0.36309078 0.107074484 0.26956394 0.22091916 -0.03101016 -0.24802788 -0.06979843 -0.04836862 0.18094775 0.2036519 -0.30873197 -0.042840097 -0.023016088 0.04803475 0.11310493 0.3875349 0.22902152 0.23739064 0.20069684 0.13986403 0.11804824 -0.511116
their -0.03317011 -0.24196203 0.36103407 -0.046853427 0.1927858 0.040795527 0.25584581 -0.043579597 -0.3196594 0.16492699 0.29437378 0.24409531 -0.023097951 -0.25323233 -0.10204701 -0.09937261 0.18831639 0.19775563 -0.28211302 -0.031580076 -0.0016878137 0.073697805 0.14934328 0.35827208 0.22746505 0.26665476 0.21043305 0.1152918 0.056077022 -0.5046907
any -0.015630573 -0.2412087 0.34114346 -0.039803214 0.22853532 0.0167086 0.23088077 -0.061208006 -0.32359636 0.10936969 0.31436047 0.20075448 -0.04148049 -0.2379675 -0.110081114 -0.08582689 0.19147298 0.21825439 -0.3123243 -0.036400177 0.025921857 0.035394363 0.10245177 0.33387837 0.17366719 0.24955054 0.21596156 0.11627782 0.09049632 -0.49144736
amendment -0.018208383 -0.25253966 0.37936023 0.0074924696 0.22985132 0.04616569 0.28720316 -0.05971374 -0.36138818 0.16608554 0.34961653 0.17976934 0.012119817 -0.28637204 -0.08882146 -0.0720834 0.16925408 0.20327176 -0.34350997 -0.085635215 -0.015738107 0.109365225 0.13049805 0.34864748 0.25860846 0.2992769 0.2369204 0.15018387 0.069663554 -0.53706926
autonomy -0.0064615514 -0.24135229 0.42066196 -0.052211203 0.266375 0.07812114 0.24853437 -0.038628723 -0.35539702 0.13269576 0.34073114 0.20753609 -0.04025039 -0.263031 -0.106123805 -0.05680744 0.18240723 0.2193652 -0.32609272 -0.026604211 0.025407907 0.099990636 0.15145451 0.39341313 0.27004695 0.27377483 0.21447316 0.114571035 0.12383982 -0.59412426
productive 0.0027124356 -0.21361077 0.34751612 -0.025945162 0.17648725 0.02001274 0.23673905 -0.06511259 -0.32700226 0.12723354 0.27239776 0.22774914 -0.0059607434 -0.28017953 -0.08411765 -0.060659297 0.17106608 0.1862987 -0.3182072 -0.07151369 0.00017131856 0.09048837 0.09019713 0.35665306 0.19962585 0.2593627 0.16646488 0.13999778 0.06887788 -0.46000135
securing -0.041316193 -0.18082523 0.31690794 -0.030763838 0.18901843 0.032755457 0.2118854 -0.046526562 -0.28227878 0.11974916 0.26439917 0.1650681 0.02672839 -0.21806937 -0.032855414 -0.06468595 0.15591066 0.24114457 -0.3099967 -0.027780723 -0.00874956 0.056943547 0.11677892 0.3410954 0.17993559 0.22917278 0.18233235 0.1368706 0.06375977 -0.44858614
control -0.030397147 -0.24245384 0.3274553 -0.01354192 0.23762916 0.069984466 0.2685767 -0.029476617 -0.3258212 0.117783755 0.32824203 0.22414248 0.017790958 -0.22189553 -0.07027734 -0.0729737 0.15403286 0.23792455 -0.26308677 -0.063133016 0.012461226 0.08503106 0.12817875 0.38059884 0.22758697 0.24356574 0.2148685 0.13805246 0.08391163 -0.49540937
transaction 0.020843916 -0.20720449 0.34637034 -0.032591715 0.21192808 0.051943734 0.24900103 -0.083885275 -0.32054445 0.16572632 0.31883293 0.22976634 8.144643e-05 -0.2216713 -0.044810463 -0.07540308 0.17996311 0.23528244 -0.33255127 -0.016222177 -0.005411857 0.09803764 0.08408853 0.3675817 0.24300021 0.2529085 0.18985225 0.14226788 0.1257946 -0.52134585
right -0.03885228 -0.17938918 0.30955026 -0.015916876 0.22472504 0.0124756 0.22121458 -0.09264888 -0.30699155 0.1426602 0.26182392 0.18892217 0.021314174 -0.2566096 -0.06714556 -0.064602986 0.16285856 0.19061859 -0.26003698 -0.051191922 0.04206617 0.052810337 0.11250629 0.3680371 0.2051518 0.26117012 0.17099658 0.14684705 0.076136194 -0.50680083
world 0.01025237 -0.19267288 0.35556445 -0.02145425 0.23825812 0.03757455 0.2597345 -0.024325548 -0.30572513 0.11419784 0.3013591 0.24693269 -0.018734219 -0.28928623 -0.08434574 -0.10639809 0.18723252 0.23077312 -0.32864624 -0.06558104 0.034553245 0.07968632 0.12980416 0.38321877 0.24482673 0.24805537 0.23082404 0.11414538 0.060818914 -0.56083816
f -0.02041583 -0.1949767 0.36173704 -0.052992523 0.22690381 0.02853171 0.22651727 -0.02782074 -0.30293056 0.13090368 0.3190006 0.21101081 -0.04917852 -0.23572147 -0.051956072 -0.06434299 0.1955812 0.20569564 -0.29743993 -0.06756307 0.017527774 0.066313304 0.1140608 0.35786802 0.22262079 0.26985607 0.20360926 0.15317601 0.10072384 -0.50628674
performed -0.02181045 -0.21955109 0.29747328 -0.026992956 0.20194222 0.07134477 0.23235637 -0.07068315 -0.28653443 0.10597759 0.2742588 0.21570429 0.01830087 -0.22433469 -0.093584314 -0.06398578 0.1977033 0.23302965 -0.28946736 -0.01973955 0.040789023 0.02163976 0.13497078 0.33042938 0.18022165 0.25045407 0.21452144 0.08482492 0.106854916 -0.49828276
cost -0.03896935 -0.19929574 0.3338408 -0.010752451 0.241436 0.07364304 0.2639925 -0.08965146 -0.3053656 0.09535968 0.29745156 0.23714603 -0.02603258 -0.22273609 -0.10021342 -0.10866063 0.20825377 0.22845158 -0.27605584 -0.03455877 0.0054515232 0.07916704 0.08441849 0.38487756 0.1917791 0.26962402 0.17693654 0.11883153 0.103254326 -0.51554734
one -0.038513362 -0.22512192 0.30165103 0.012766373 0.18251301 0.036102876 0.19911055 -0.066556044 -0.32050166 0.13147849 0.30552572 0.20517789 0.021716379 -0.22658114 -0.04555344 -0.05162261 0.178959 0.20964138 -0.31033152 -0.048002373 0.028918132 0.034914184 0.11502891 0.3150644 0.23272294 0.24393415 0.19248413 0.090674244 0.104350656 -0.50173116
managing -0.033607733 -0.20133564 0.35334787 -0.017311718 0.22714384 0.06206613 0.27441126 -0.049305096 -0.31104928 0.09837152 0.3281297 0.24853966 -0.02348786 -0.2596141 -0.09533487 -0.099496946 0.20715995 0.21499069 -0.2968277 -0.06978877 0.034226686 0.050530765 0.08915959 0.3828981 0.25199816 0.22716334 0.2171423 0.11184936 0.05687157 -0.5402311
determined -0.040782016 -0.19169253 0.32816538 -0.039226275 0.20472479 0.054650668 0.2672831 -0.09009082 -0.30662298 0.1223486 0.2802012 0.19446209 0.01866025 -0.23939267 -0.04689218 -0.07558937 0.167687 0.23109771 -0.26115847 -0.03956598 0.005242083 0.076715 0.09364054 0.36314717 0.20190072 0.2221496 0.20969887 0.09683642 0.089692764 -0.51101
towards 0.0033004344 -0.20439072 0.3868024 -0.05404555 0.19793025 0.06612245 0.2620657 -0.056879602 -0.3529229 0.13026452 0.27854347 0.21525027 -0.02551288 -0.25484163 -0.06363587 -0.07720531 0.16238189 0.2308783 -0.33570522 -0.059351515 0.012005042 0.09370238 0.09025176 0.38543487 0.24239528 0.29321575 0.22604975 0.09573028 0.10216508 -0.49207458
providing -0.0029694608 -0.21194108 0.3556165 -0.009169305 0.22706293 0.07434373 0.23943815 -0.09094951 -0.3116306 0.10554871 0.30424243 0.2134196 -0.013028852 -0.2749614 -0.08072339 -0.12340664 0.18653065 0.19874758 -0.32893154 -0.035030715 0.013060119 0.07657378 0.11810134 0.33773866 0.2524461 0.24843657 0.19421637 0.14137547 0.08662103 -0.5126291
dfis -0.006697747 -0.18611176 0.34182912 0.012657911 0.18587463 0.026850032 0.24014738 -0.07851065 -0.26842296 0.12624322 0.28865477 0.19120288 -0.015217091 -0.22310704 -0.09404115 -0.04369437 0.17772247 0.20597245 -0.29097447 -0.07090912 0.033381052 0.07133703 0.087029934 0.30141184 0.18090437 0.23346275 0.14914677 0.10137619 0.085781224 -0.49655172
domestic -0.013054275 -0.22980605 0.33405855 -0.026978161 0.16730678 0.028962735 0.20633456 -0.07916292 -0.30702323 0.13163647 0.32661402 0.22596106 -0.028452128 -0.26865366 -0.044362277 -0.06028211 0.19688483 0.2007792 -0.3046515 -0.056078 -0.024122972 0.07966894 0.095789984 0.37962365 0.18017238 0.28445026 0.1744347 0.14885268 0.06403137 -0.5143802
course 0.0145525765 -0.25963625 0.33487317 -0.009599008 0.18696482 0.059130058 0.26267782 -0.08596844 -0.31960046 0.13969646 0.3391761 0.21665096 -0.028873462 -0.26163948 -0.057311222 -0.108440906 0.21970275 0.20809151 -0.32519394 -0.059610207 0.016312419 0.028933464 0.124555595 0.35798037 0.2464868 0.2457236 0.17323245 0.13206157 0.12116322 -0.5056991
promotion -0.015840854 -0.21327464 0.331841 -0.04879256 0.2085496 0.042265654 0.22782278 -0.07862268 -0.35372847 0.1551976 0.31734833 0.22629093 -0.0063116564 -0.23345914 -0.06153581 -0.067397624 0.17604154 0.228229 -0.2989625 -0.023818212 -0.023435693 0.062188536 0.124865934 0.35951442 0.17731008 0.28505644 0.19727509 0.12818141 0.06773919 -0.47553417
after -0.007508093 -0.2296676 0.36774495 -0.024140157 0.24768712 0.010557576 0.27179292 -0.07934405 -0.30820507 0.15092377 0.29476273 0.21059602 -0.034243025 -0.22484134 -0.054710746 -0.07963775 0.22320645 0.21593842 -0.31038615 -0.06122269 -0.02516737 0.05576901 0.113174446 0.3640521 0.20718168 0.27083817 0.2091989 0.09689447 0.11516779 -0.5316742
adopt -0.05316027 -0.20631355 0.30725983 0.0106956335 0.19105595 0.06397699 0.23718096 -0.06992116 -0.32707393 0.097379245 0.31564617 0.17953809 -0.006391927 -0.22959802 -0.10597778 -0.065640464 0.14451885 0.22832099 -0.30555147 -0.006788491 -0.0005545581 0.049623612 0.10448719 0.3432132 0.19959928 0.2423826 0.17801301 0.13333249 0.06201001 -0.49266446
provision -0.035050787 -0.19263464 0.34159562 -0.040950064 0.23199874 0.018606614 0.2518008 -0.02914374 -0.2928207 0.10949959 0.31203315 0.22381406 0.02278158 -0.25630352 -0.070873715 -0.09638779 0.16801499 0.212419 -0.29104063 -0.06170373 0.01909709 0.04156307 0.099668324 0.32488698 0.23895298 0.26588768 0.18839163 0.14382023 0.09615738 -0.5394143
considering -0.03548758 -0.24124521 0.35004643 0.0059526516 0.2410842 0.052513313 0.25429347 -0.07944366 -0.31169388 0.1195704 0.2966426 0.18755129 -0.0142048905 -0.28553003 -0.06377378 -0.11565741 0.21325175 0.20298795 -0.33815694 -0.040276453 -0.026830537 0.07875714 0.09773148 0.38233247 0.2449955 0.28362402 0.20677541 0.15018769 0.09380105 -0.49917796
decision 0.007620277 -0.24577308 0.35504496 -0.05923296 0.20664495 0.074796766 0.23433295 -0.07466319 -0.30322793 0.15003341 0.31347662 0.17936957 0.015098323 -0.2161994 -0.09917404 -0.081909105 0.17425412 0.18440782 -0.30987674 -0.011115161 -0.0017993567 0.036191147 0.092617474 0.3237902 0.21772838 0.26736748 0.19900674 0.10551831 0.11645616 -0.53890944
taking -0.024019977 -0.2585421 0.38568914 -0.037175458 0.2014222 0.0016955473 0.2811873 -0.05981108 -0.34582406 0.14392947 0.28227597 0.21875331 0.008474711 -0.26061922 -0.08608779 -0.08360795 0.16120818 0.23868734 -0.2857866 -0.018109446 -0.033492666 0.061303444 0.08882848 0.38678277 0.23641723 0.25570557 0.16886847 0.13989674 0.08529781 -0.49173775
task -0.027903557 -0.2297772 0.3661089 0.006880839 0.18986185 0.030002467 0.24246667 -0.06768086 -0.31357968 0.13329053 0.30343553 0.18200245 -0.04383228 -0.2533112 -0.07935571 -0.12946081 0.2180739 0.2562375 -0.28725436 -0.055050477 0.009697771 0.08643113 0.09354039 0.36059844 0.18376149 0.27719948 0.17246367 0.13123086 0.1213312 -0.517092
reform -0.04359101 -0.19342802 0.38016728 -0.047480877 0.23301469 0.07062199 0.27238607 -0.08169116 -0.3077282 0.10820828 0.2748794 0.21546593 -0.033533946 -0.26251018 -0.103424855 -0.10700473 0.1732166 0.22169642 -0.30916697 -0.015056788 0.020187402 0.0358972 0.085888214 0.3607619 0.21070798 0.24016578 0.22732618 0.12995961 0.06227026 -0.50188553
include -0.020800961 -0.24254689 0.36475343 -3.0693736e-05 0.19220246 0.03285526 0.24840443 -0.04862687 -0.31260842 0.107438736 0.2775782 0.20062044 0.0067167836 -0.24535577 -0.07134586 -0.0866546 0.17279075 0.22582456 -0.3151001 -0.035110686 0.007839926 0.099741556 0.10159962 0.3810048 0.2268923 0.23471169 0.23164013 0.13054828 0.103844866 -0.52771837
consist 0.018390432 -0.19739248 0.32004112 -0.00075278495 0.21973392 0.0714008 0.24871045 -0.052136566 -0.3191051 0.10437353 0.24611832 0.19113486 -0.024014851 -0.2334953 -0.07841067 -0.05897691 0.18583068 0.17884372 -0.2571643 -0.021104397 0.03575002 0.06287309 0.09088019 0.35425004 0.17837732 0.21206193 0.19973968 0.11769883 0.086243436 -0.5104721
secretary 0.0002986251 -0.22858605 0.37300745 -0.027446207 0.20246144 0.052799635 0.25199485 -0.069609664 -0.33831337 0.15130514 0.26353952 0.22409904 -0.023708723 -0.22449286 -0.07010193 -0.0716551 0.16593926 0.20687282 -0.32333007 -0.056000415 0.03315949 0.03215702 0.111676246 0.3854874 0.23687665 0.23494643 0.21976432 0.08960867 0.07769378 -0.48776945
data -0.0012424431 -0.2463456 0.35150144 -0.055577658 0.22419879 0.055848446 0.2287081 -0.038567487 -0.34550148 0.15130217 0.3375486 0.21736841 -0.016107842 -0.2831455 -0.101426 -0.083575614 0.15812053 0.25946102 -0.30057278 -0.045720246 0.031420246 0.0472325 0.122034624 0.3795637 0.2387139 0.27437666 0.19521268 0.11054546 0.06462671 -0.5054912
depositor 0.006538356 -0.18681751 0.37599105 -0.048190087 0.23233274 0.015721956 0.24087575 -0.0651525 -0.2864277 0.103237815 0.30149266 0.17172019 -0.0073933257 -0.22239731 -0.11013435 -0.05223511 0.13961308 0.2339804 -0.32094547 -0.06846504 -0.022815336 0.084443085 0.0970299 0.3590569 0.17846605 0.28645626 0.20381542 0.09077594 0.07504361 -0.46179405
infrastructural 0.0009944454 -0.26066884 0.36456218 -0.048705652 0.23807065 0.071341984 0.2457146 -0.06262135 -0.30046847 0.11157086 0.3232388 0.22968961 -0.040142637 -0.2593572 -0.054561637 -0.0699804 0.22269212 0.2169562 -0.27461222 -0.078800134 0.025748603 0.03073839 0.1299891 0.39764497 0.19951972 0.28374887 0.17272033 0.11787876 0.103983484 -0.537698
saving 0.013480488 -0.25285035 0.36344373 0.010028138 0.24683611 0.04517218 0.29179534 -0.09793939 -0.34898034 0.13825966 0.30954245 0.23375401 0.009258968 -0.27664125 -0.090455 -0.056047358 0.16847357 0.19330646 -0.31312194 -0.06981115 0.01455624 0.071504176 0.08952343 0.36963886 0.20989846 0.25094366 0.21546209 0.13477172 0.083595164 -0.50122935
export -0.008809597 -0.20803298 0.38574988 -0.0025861035 0.25812858 0.031804726 0.24792661 -0.076470196 -0.32026178 0.11117981 0.31246665 0.25100845 -0.017652988 -0.24582127 -0.08044412 -0.07949921 0.18674794 0.19375227 -0.2804253 -0.027005862 -0.023827601 0.03856144 0.12459513 0.38771895 0.20340137 0.29285404 0.17624459 0.11278361 0.119122654 -0.53321517
year -0.03213546 -0.18667933 0.36605603 -0.044112533 0.18575189 0.040558457 0.27083048 -0.06207083 -0.30385724 0.122308366 0.3085761 0.1909888 0.005716599 -0.20641427 -0.11534031 -0.056105927 0.15244101 0.18083411 -0.26805106 -0.037348226 0.026425 0.028639035 0.13697925 0.32392114 0.18394428 0.26141125 0.17978945 0.12994388 0.06785435 -0.52252156
behalf 0.011063539 -0.21239372 0.3506861 -0.02566145 0.19026588 0.053551953 0.2569136 -0.06812351 -0.33673754 0.11189469 0.30298868 0.2138358 -0.03310362 -0.2214439 -0.04257822 -0.1034325 0.16996962 0.19990815 -0.29486194 -0.059524868 0.029136855 0.04735657 0.083953485 0.33801123 0.23161648 0.25894472 0.16465153 0.097792976 0.112210095 -0.46822608
chief -0.034253776 -0.23112458 0.3141565 0.010302785 0.1975665 0.019174729 0.24876766 -0.06613751 -0.3026406 0.10205947 0.28592145 0.19279462 -0.0012990581 -0.25262162 -0.08630101 -0.07962509 0.1542997 0.1904726 -0.2474374 -0.0358987 0.041177236 0.07119111 0.09868297 0.34291384 0.23063278 0.2484504 0.16127236 0.13851163 0.053940017 -0.47549936
administration -0.04734649 -0.25587484 0.3406366 -0.008149328 0.22836833 0.03709028 0.2267589 -0.04095618 -0.29493573 0.1509131 0.30464923 0.17883539 0.016413711 -0.25028732 -0.07549491 -0.06442419 0.22034106 0.21602532 -0.3208206 -0.047728732 0.018796233 0.059523385 0.11015281 0.4018504 0.21494693 0.2400571 0.23543344 0.096413165 0.080199875 -0.49538904
time -0.028981227 -0.2127506 0.35668665 -0.055179913 0.19752789 0.052624334 0.2782575 -0.03577887 -0.33099458 0.15623482 0.3151879 0.19185045 0.023020789 -0.28586787 -0.055531874 -0.09447444 0.19045195 0.22626834 -0.29555017 -0.073402844 0.010569566 0.06609364 0.12283426 0.36734864 0.19497824 0.2443669 0.1923966 0.12698871 0.07232404 -0.5037897
debt -0.0053759003 -0.22595233 0.31712663 -0.04315848 0.16992705 0.04192834 0.21801047 -0.013063121 -0.28382698 0.11570119 0.31423098 0.17359743 -0.037443392 -0.22903746 -0.09864708 -0.086747654 0.17477974 0.16959995 -0.283305 -0.031047065 0.014024714 0.051032387 0.10926469 0.37333733 0.20469415 0.22483979 0.1617933 0.08522775 0.079057135 -0.4913502
decided -0.04080655 -0.21331161 0.3379569 -0.04254291 0.21747424 0.026675593 0.26209807 -0.033873223 -0.2820175 0.146069 0.31787553 0.20815703 -0.002456478 -0.24107806 -0.054399174 -0.10695629 0.1898909 0.23557918 -0.2660112 -0.059309315 0.03210602 0.08434667 0.09016706 0.39502612 0.18609847 0.28672138 0.16948934 0.097349495 0.11244056 -0.50410354
issue -0.045147676 -0.2148516 0.31896487 -0.0053966707 0.23304068 0.033646997 0.251725 -0.06423987 -0.29156488 0.1296681 0.26062217 0.1999335 -0.02708045 -0.21411371 -0.09448851 -0.04873886 0.18001589 0.237345 -0.27073556 -0.007046531 0.0050513027 0.06575827 0.122107886 0.35228515 0.19340277 0.25962502 0.21828271 0.13797103 0.08861941 -0.469511
more -0.015155175 -0.20217532 0.31587288 -0.039594192 0.17370182 0.05665727 0.211606 -0.02978394 -0.3238806 0.11796849 0.24666138 0.21773073 0.007132545 -0.22925857 -0.07819965 -0.090908915 0.14490172 0.23140118 -0.3146789 -0.025452329 0.024043797 0.089919195 0.10882193 0.3509913 0.21604782 0.25225005 0.1543792 0.09345007 0.077614285 -0.47853053
banker 0.00027938883 -0.2098654 0.3225221 -0.012842383 0.21153226 0.071758844 0.25936612 -0.05033923 -0.29139912 0.083330296 0.30047852 0.17388472 -0.00063108106 -0.22693557 -0.04089802 -0.05403692 0.20276062 0.20579007 -0.2976332 -0.05524563 -0.025193898 0.061848316 0.1333334 0.35997146 0.1946207 0.24088052 0.16174613 0.131726 0.10323794 -0.46710548
mpc 0.020782586 -0.22647603 0.27517188 0.0171367 0.20224206 0.0076715383 0.2532368 -0.07120855 -0.28022993 0.11762417 0.2220085 0.20320262 -0.032348834 -0.24512403 -0.047586903 -0.037847884 0.1846309 0.20309259 -0.26474115 -0.06338307 0.005841977 0.047961365 0.1047864 0.35309935 0.21553612 0.20836098 0.15752232 0.12715031 0.101997636 -0.4788093
institutional 0.006309531 -0.21359368 0.386612 -0.0126697 0.21399525 0.008451601 0.2496065 -0.093621776 -0.38160375 0.15989466 0.31045985 0.24470417 -0.012275465 -0.28196347 -0.12379175 -0.11475684 0.21094936 0.2726036 -0.34009218 -0.028653422 -0.0053467727 0.10344243 0.12126837 0.38236994 0.23660164 0.27664173 0.24163492 0.097406074 0.10186805 -0.5405542
vote 0.01508713 -0.22127187 0.32792372 -0.050456982 0.2205424 0.0164895 0.26478246 -0.028881488 -0.2894301 0.15221597 0.26793122 0.23164952 -0.031803794 -0.21695495 -0.08965915 -0.07074288 0.1732293 0.21085353 -0.2658545 -0.037157744 -0.015577033 0.080260776 0.11327339 0.3348172 0.2274327 0.24006757 0.21210134 0.115917735 0.099888936 -0.48048797
chairperson -0.029068068 -0.2387419 0.32775682 -0.008196796 0.1788543 0.018160934 0.25071606 -0.05421596 -0.32844788 0.10679217 0.31160158 0.22734708 -0.040535815 -0.27045977 -0.081321076 -0.080386765 0.1675652 0.18570061 -0.31223738 -0.061654862 0.024568783 0.07179998 0.06402221 0.31844753 0.18306327 0.24732181 0.16526449 0.1215053 0.10481704 -0.5316381
further -0.024508648 -0.2043104 0.39666548 -0.024892846 0.21297972 0.0083400225 0.25143388 -0.060177226 -0.31474647 0.12674727 0.34383634 0.1896744 0.0070185093 -0.24719357 -0.10162222 -0.057693258 0.16913122 0.23992376 -0.3517879 -0.050999057 0.006756136 0.09212641 0.12532017 0.35259092 0.21374641 0.24904516 0.18625782 0.13466054 0.113054745 -0.55560136
branch 0.01602309 -0.21373999 0.34164432 -0.033954076 0.2386922 0.049572617 0.25568178 -0.01380126 -0.34887907 0.10033156 0.27822816 0.2091831 -0.03268958 -0.2838892 -0.1003884 -0.082394235 0.2196625 0.21670084 -0.30402806 -0.041109428 0.03477321 0.082361855 0.081689425 0.3408158 0.19596508 0.27834436 0.22322468 0.1498414 0.10279506 -0.4851174
repo 0.004293701 -0.23438841 0.36882317 -0.013601535 0.24059418 0.011728674 0.22332074 -0.078380734 -0.36240616 0.15637788 0.2945669 0.18814345 -0.0030415352 -0.22665808 -0.059534572 -0.094560266 0.20847732 0.22263557 -0.33184087 -0.073343314 0.002044661 0.008265136 0.11829991 0.38540462 0.19713314 0.27030268 0.22915871 0.15265156 0.059178278 -0.5118395
initiative -0.014433707 -0.22932693 0.3767424 -0.06146386 0.24065821 0.0016803148 0.3023311 -0.08405804 -0.35808086 0.1680751 0.31456003 0.17884469 -0.02863269 -0.2921376 -0.0626064 -0.11712784 0.1894156 0.2103402 -0.2918008 -0.054277617 -0.021763243 0.07686542 0.119123265 0.42843726 0.21509257 0.26196927 0.19489156 0.10562049 0.12752229 -0.51609576
compliance 0.00013409562 -0.24938357 0.3480466 -0.014499075 0.19301203 0.063774064 0.27714244 -0.058207277 -0.35794705 0.16790843 0.31832972 0.18242425 -0.0020084276 -0.27099508 -0.112718634 -0.06435223 0.19885853 0.23325261 -0.2699975 -0.050942406 -0.019193653 0.031717252 0.14486998 0.35929704 0.22434284 0.26137418 0.16552992 0.1281083 0.118994206 -0.524
99 -0.015280475 -0.2733244 0.4171034 -0.029376313 0.25666982 0.007817996 0.27283937 -0.055887084 -0.38424286 0.1318382 0.42320207 0.2783798 0.009248271 -0.2614199 -0.06790045 -0.079005785 0.24283244 0.2831476 -0.38273424 -0.042795707 -0.029061371 0.08521627 0.1406462 0.3864668 0.25762704 0.29435408 0.2098406 0.14967208 0.08171248 -0.6145004
ifdd -0.02111888 -0.23344402 0.3413813 -0.03156122 0.22108147 0.05278148 0.29136375 -0.040027305 -0.32995746 0.092198685 0.3184919 0.2523034 0.023887895 -0.24368404 -0.075163595 -0.069338605 0.17024635 0.19126448 -0.32571965 -0.078508064 0.017258417 0.10236773 0.11817918 0.36352608 0.20045286 0.23782144 0.18566501 0.12446425 0.09502656 -0.5457728
